embedding_0: 0.019799327,-0.0006591432,0.028090088,-0.04336453,-0.050879776,-0.06193867,-0.06834808,-0.019230716,-0.051130354,-0.02377333,0.0034359612,0.04087693,-0.022954887,-0.08764609,-0.01845358,0.017532721,0.049681067,-0.011213979,-0.031012226,0.0017309246,-0.043858018,0.007894928,-0.021766715,0.03833938,-0.04748403,-0.094038546,0.050342556,0.050172895,-0.010569077,-0.00024945554,0.063015155,-0.033832237,0.0033419882,0.00015761833,0.06772376,-0.033223994,-0.03094345,-0.027923193,0.013350918,-0.039091628,0.038098726,0.03645503,0.040634178,-0.033019572,0.07704228,0.020666406,0.0772429,-0.021539176,0.049189627,-0.020839827,0.031208677,-0.04982944,-0.0075937505,-0.050345946,0.0365751,0.0090497285,-0.0044070403,0.007264586,-0.042085174,0.05145452,0.01921851,-0.001345446,0.004539417,0.020689726,0.054905098,0.034841776,0.038752154,0.073536135,-0.016660089,0.014006019,-0.030466579,0.024014553,-0.012061474,0.040153366,-0.06377606,0.051747028,0.021787783,0.025825715,0.01147392,-0.017676992,-0.07197357,0.034239292,-0.06829873,0.05273354,-0.029446123,-0.012237011,-0.037843626,0.016105961,0.030261671,0.08252057,-0.0022290254,-0.040675107,0.0079357745,-0.0124485735,-0.037354674,-0.028688436,0.036620963,0.028756335,-0.020100018,-0.05308293,0.0016361714,0.04222481,-0.018715905,-0.03453631,0.037308645,-0.008195801,-0.0025734035,0.009594034,0.015903413,-0.006649551,0.030833796,0.05877519,-0.0024595715,-0.03129809,0.07840019,-0.060043346,0.015107351,-0.02032154,-0.011303658,0.028555268,0.016520051,0.04874084,0.00062691653,0.02547845,-0.030066723,0.032513026,0.08674812,-0.0416822,0.009067929,0.020781316,0.00032156726,-0.0019175952,0.010976252,-0.020178646,0.033215046,-0.08222154,0.009120038,0.0030854358,-0.021628948,-0.09971723,0.025731388,0.029277751,0.046130113,-0.026938736,-0.040689282,0.02453681,-0.02789935,0.024301488,0.07310171,0.03975271,0.0071330643,0.040237267,0.01447139,-0.025388876,0.025859218,0.005540874,-0.043201335,-0.0017988946,0.036770284,-0.034229275,0.011055354,-0.019491589,-0.025157517,0.05481354,-0.080973536,-0.013304902,0.0033450327,-0.015942166,0.01264507,-0.006565562,0.044930875,0.016679028,-0.03652014,0.007682782,0.0201161,0.007835714,-0.046119068,0.069866925,0.036055498,0.02796021,-0.0295716,-0.011314535,0.030565185,0.04858522,-0.04190499,-0.012603931,0.011152947,-0.017325986,0.021154601,0.070483014,0.031196859,-0.104468785,0.004543865,0.03984608,-0.0022103905,0.008512748,0.026384536,0.06400439,-0.048456628,0.022905141,-0.002885297,0.038402908,0.04676934,0.032091796,-0.033323903,-0.005683696,0.0255624,0.017897708,0.03519804,-0.014516796,-0.06232717,0.013207864,0.03916631,0.00476158,0.01844811,0.07691459,0.06282722,-0.033998847,-0.0200852,0.04406128,-0.022398645,0.032840177,0.0051914193,0.0045164973,0.05825342,-0.0058550476,-0.047337145,0.024677174,0.028315762,-0.0008645569,0.0077238423,0.03028131,0.051259007,0.036602944,-0.034438804,-0.052257244,0.052041538,-0.055467844,-0.08313949,0.003159954,0.052067343,-0.04716603,-0.0057329717,-0.051922295,0.08407742,0.03395091,-0.02100254,-0.025598671,-0.001877493,-0.027105724,0.014059149,-0.0031694525,0.02036181,-0.001851895,-0.047836013,-0.03793272,-0.026199035,5.534215e-05,0.0018987834,-0.009466905,-0.021672035,-0.052809075,-0.020341743,-0.02556214,-0.012956746,-0.0013093502,0.02204302,-0.015595303,-0.00079244515,0.011619568,-0.046975955,0.03012752,0.057477657,0.028312933,0.06942655,0.014299497,-0.036608882,-0.05508192,-0.044919148,0.03726973,-0.026444249,-0.052701607,-0.018811079,-0.029009156,-0.003908706,0.015493586,-0.0017780625,-0.0391371,0.018025547,-0.04098826,-0.005684835,0.06967892,-0.067121156,0.028411781,-0.04068913,0.015551471,-0.013903572,0.058612537,0.062410485,-0.031496458,-0.007886831,0.010496951,-0.004641534,-0.016853882,-0.030463185,-0.019508436,-0.030495401,0.023271928,-0.040206093,-0.0014932426,0.039833006,0.05923193,-0.003690727,0.01856948,-0.010580628,-0.021891117,0.061777346,0.055850077,0.0359548,-0.026501026,0.028315669,-0.024180548,0.052043688,-0.0071663107,0.029566852,0.020353338,0.0077268756,0.057927992,0.046744294,-0.019217795,-0.015932178,0.05735507,-0.038054816,0.04030017,0.025706353,0.026452024,0.005176927,0.014231002,0.021664536,0.012372551,0.0060434053,0.003964665,0.0131035885,0.036877237,-0.026860956,-0.04234755,0.038766917,0.04114808,-0.09005617,-0.044585463,-0.018437471,-0.00069698883,-0.042576022,0.0019105633,0.066401124,-0.006176908,0.067043774,-0.038435142,0.007291031,0.06871988,0.070892215,0.015415839,-0.01729905,-0.0453081,0.0071736793,-0.026673878,-0.068453014,-0.07288987,0.044124477,0.058743216,0.04420398,-0.02829869,0.05924221,0.070422016,-0.017957676,0.023047006,-0.010890925,-0.051615454,-0.03548923,-0.055265818,0.03426435,-0.04090657,-0.019209601,0.033443183,0.05815869,0.011821782,0.06817151,-0.058180895,-0.023693183,0.019981682,-0.027284507,-0.028298505,0.045046713,0.0145904105,0.009168252,-0.08021808,-0.03727381,-0.018579027,-0.049438376,-0.0013200153,0.084535204,-0.05239603,0.0020067268,0.058477838,0.0024175846,0.003020077,-0.0031269174,0.055261873,0.014812809,0.0013833761,0.010551851,-0.043957546,-0.013986931,-0.008967919,0.03835691,0.044969466,0.029725973,0.041538727,-0.00017318851,0.016008971,0.024888031,0.004014072,0.019239822,0.01872104,-0.0638106,-0.007937821,0.03562038,0.029000811,-0.104195125,0.020550016,0.0011181466,0.035646126,0.0072267065,-0.0061147055,-0.038072385,0.042298768,-0.036707498,0.05877258,-0.068463266,0.012816555,0.010487349,0.00018475231,-0.004156693,0.055952683,0.022623954,0.01941899,-0.034814466,-0.029330617,-0.004815661,0.012193052,0.041587163,0.03528951,0.007330819,0.028315933,0.016364034,0.043169975,-0.023641791,0.007345489,-5.1313877e-05,-0.042391848,-0.0450996,-0.01977118,0.00207601,-0.017172635,-0.019135917,-0.027390182,-0.010973084,0.047475092,0.06547295,0.0179945,-0.017272118,0.012919948,-0.0052278927,-0.03430074,0.008928182,-0.009993193,-0.03555022,-0.019343697,-0.027009796,-0.040559538,0.0021949997,-0.010039773,0.019064108,-0.028139243,-0.012982306,0.03421868,-0.059317797,0.011388579,0.048944566,-0.012147246,-0.020575486,0.0363953,0.010503067,0.01455098,0.014608343,-0.05012903,-0.033723954,-0.046335425,0.027657479,-0.00010392775,-0.048636757,-0.003974785,-0.020743264,0.03229988,-0.027651116,0.027929218,-0.017470408,0.024993533,-0.020246677,0.020333216,0.08720889,-0.013766995,-0.023803243,0.020821884,-0.004670562,-0.016424146,0.0009105258,-0.002867562,0.0006034875,-0.03053028,-0.043012373,0.017577305,0.06633559,0.04468966,-0.054369647,-0.020192353,0.040200282,-0.015895382,-0.04785523,0.01733733,-0.017249016,0.009045862,0.032807395,-0.007543424,-0.022045117,-0.02903798,0.021211792,-0.046830762,-0.054461442,-0.03386538,-0.012747205,0.026495818,-0.011616707,0.015538976,-0.037451584,0.005408686,0.017030358,-0.035667542,0.0013103972,-0.00044512714,0.014610125,0.010638348,-0.08641461,0.040465787,-0.010252012,-0.008343187,0.018583164,-0.013039459,-0.0041265707,-0.023694845,-0.03905488,-0.06263645,-0.045467243,0.06431291,-0.08280202,-0.06282108,0.029526256,-0.018811679,-0.02347533,0.043124843,0.013198077,0.041176345,0.010445843,-0.030408453,0.071044184,-0.023408527,0.018477978,0.019783504,0.009333831,-0.019097276,0.032139,-0.049680986,-0.041185167,-0.038668588,-0.0056381184,-0.036928017,-0.014925933,0.044080462,-0.045427736,0.010785823,-0.007653367,-0.027555577,-0.03647276,-0.0012478032,-0.01111875,0.043345444,0.054715212,-0.03592905,-0.008206122,-0.022855807,0.04074519,0.047307804,-0.036563665,0.032412615,0.024324208,0.084427655,0.01828969,-0.056045804,0.0075485143,0.0033156623,0.04699442,0.028425131,0.039966118,0.04888167,0.0023848403,-0.00295566,-0.049464956,0.021925718,0.010108592,0.05964072,0.0056502605,0.041138105,0.009663083,-0.0019110843,0.047312353,-0.0036526623,-0.013569234,-0.05532868,-0.04720432,-0.004194937,-0.03493123,-0.012048036,0.033184882,-0.017713496,-0.05039975,-0.02081633,0.017089356,0.009588495,0.042376157,0.021212379,0.021307336,-0.02967836,-0.020252205,0.05055878,-0.012537427,-0.07925771,0.06515015,-0.018954508,-0.028302403,0.04897307,-0.03599079,-0.03275965,-0.07139376,-0.036741596,0.015661906,-0.057399414,-0.03071356,0.031472635,-0.030879332,-0.033965122,-0.062420543,0.09231599,-0.053523313,-0.007336792,0.01039791,-0.0072716516,-0.03573507,0.0027052716,0.019487059,0.012821723,-0.054957956,-0.04478264,0.016775882,0.0077840113,0.053147625,-0.010232304,0.022475101,-0.026519438,-0.026145665,0.005692439,-0.012002267,-0.019782906,-0.014582199,-0.016929626,0.011270471,-0.0103489105,0.003954785,0.059643913,-0.02333921,0.015801502,-0.0048016687,-0.0047333133,0.0041875513,0.012776688,0.018417014,-0.030426737,0.028548395,0.011696447,-0.033951648,-0.028153842,0.011526243,0.026566308,0.016170213,-0.038545366,0.035042565,-0.063489445,0.016336411,-0.018100789,0.023992673,-0.0054256083,-0.022389192,0.020614203,0.022657512,0.01745101,0.046752963,0.025543781,-0.040460665,-0.014109863,0.044927966,0.042393573,-0.03968159,0.026474902,-0.009930771,0.045029636,-0.018009841,-0.0240139,0.021245498,-0.042006113,-0.023512704,-0.017697992,0.047917612,-0.019862963,0.037345465,-0.00083464145,-0.034240168,-0.05995747,-0.007197146,0.064787,-0.024821138,0.063444756,-0.0014838544,0.017784014,0.0030863518,0.013785064,0.003917243,-0.03771829,0.016427351,0.035097916,-0.06889213,-0.056591187,-0.061021578,0.030760443,-0.03175502,0.055168778,0.023669638,0.055446092,0.011292239,0.01699439,0.018943144,0.030189618,0.0034952043,0.025984362,0.0029769016,-0.007633318,-0.03352511,-0.03642961,-0.034171123,0.051219445
embedding_1: 0.0017988656,-0.0035025117,0.010252828,-0.0391598,-0.05281338,-0.06538933,-0.035852265,0.0126737375,-0.05151019,-0.00417005,0.04141627,0.01564538,-0.040865332,-0.067535385,-0.0046528755,0.025968285,0.034630798,-0.055251725,-0.016753064,-0.016067721,-0.05791757,0.003420221,-0.00318994,0.033035394,-0.06458563,-0.07502528,0.034794286,0.016988188,0.018682575,-0.007744001,0.0541026,-0.020903446,0.029485628,-0.015372152,0.06330339,-0.024318038,-0.019995244,-0.02126131,0.0366863,-0.02947399,0.03852202,0.030974716,0.016094321,-0.028852371,0.067075275,0.0042699315,0.06132101,-0.014801915,0.061791033,0.030677881,0.07560702,-0.030378563,-0.017517041,-0.050718,0.020805394,0.007079137,0.012881462,-0.017368998,-0.044428088,0.047579136,0.040307906,0.03875972,-0.019339874,0.014560161,0.059172913,0.03343941,0.045024622,0.05083915,0.0021371227,0.04576464,0.023141293,0.0010871006,-0.015744483,0.051171057,-0.03340313,0.032704923,0.032534227,0.027347181,0.015759587,0.0037763258,-0.025591306,0.040912133,-0.044164672,0.04090826,-0.012861344,-0.008976072,-0.033484917,-0.003284934,0.045612916,0.0594398,0.0033862768,-0.010096487,-0.009088914,-0.008552791,-0.033824433,-0.024106344,0.006312705,0.009432812,-0.008156447,-0.05512567,-0.011808895,0.023637595,-0.03471531,-0.006039513,0.0066941665,-0.019518964,0.010674501,0.021295434,0.02486017,-0.012885358,0.053653322,0.07901603,-0.015453783,-0.022852894,0.087734655,-0.07430888,0.0105592115,-0.03369143,-0.01748444,0.018401906,-0.013541414,0.023968592,-0.039918326,0.018359467,-0.037571047,0.023495173,0.074027374,-0.039162718,0.0063679237,0.015695475,0.027940352,-0.010248374,0.028109638,-0.043999556,0.045710616,-0.05472437,0.00019577914,0.039251946,-0.020283239,-0.09381981,0.02211179,0.010441636,0.010124498,-0.022843909,-0.03342528,0.040918313,-0.04283313,0.023281844,0.040358264,0.036984656,0.02421473,0.00278523,-0.009305364,-0.035119873,0.015481774,0.01933545,-0.03195606,0.022369351,0.03885964,-0.051857926,-0.0020086884,-0.02154528,-0.055447586,0.07032167,-0.07838193,0.012491764,0.020524837,-0.016372252,0.013568223,-0.01898654,0.07358076,0.010499118,-0.022994041,0.0006870037,0.02030223,-0.0038617102,-0.061964717,0.05875526,0.041393854,0.013884704,-0.036877837,0.010234318,0.03156372,0.05315934,-0.009740695,-0.03504614,0.016550133,-0.03484238,-0.0029294563,0.06883502,0.053067785,-0.11392038,0.017851183,0.033560626,0.031667743,-0.0060122143,0.032372814,0.04276044,-0.012675771,-0.011252025,0.0012146614,0.052861024,0.04921605,0.021541106,-0.01959097,0.011543001,-0.001983293,0.035953842,0.035796657,0.0039368854,-0.062844425,-0.009506105,0.0383798,-0.014517217,0.0061043934,0.079759136,0.06406894,-0.03621576,-0.032618172,0.039620742,-0.026788153,0.027683327,-0.00084327214,0.0022538444,0.032313954,-0.016461652,-0.05800276,0.060329005,0.04743487,0.019166445,0.026802089,0.05017059,0.04380195,0.052543476,-0.06387106,-0.06164501,0.046924993,-0.059042495,-0.06769265,-0.006132588,0.07227556,-0.007282192,-0.017574467,-0.08420049,0.08110209,0.010762476,-0.0033709237,-0.04298362,0.0066458257,-0.071318,0.033227637,-0.026340006,0.016867286,0.028361684,-0.045470424,-0.03585012,-0.055981245,0.016122818,-0.0046521383,-0.0063604647,-0.043144885,-0.043071337,-0.0518494,-0.0129797775,-0.026081074,0.0037414012,0.023530686,-0.030499488,0.034020726,0.0015182908,-0.043695513,0.038698148,0.035090238,0.004132325,0.042738535,0.02594725,-0.042607695,-0.07430372,-0.038569972,0.052616067,-0.013040216,-0.02868444,0.013802731,-0.0052495697,-0.015826417,-0.009061316,-0.007902992,-0.057568513,-0.005690544,-0.04004309,0.00078191166,0.044526927,-0.051143844,0.015607264,-0.05712246,0.045301132,-0.02619246,0.0609437,0.02828852,0.015554561,0.01197107,0.0069973744,-0.011801149,0.00015124991,-0.026764147,-0.002715902,-0.048379235,0.046591237,-0.022670986,-0.025819294,0.043110732,0.06559601,-0.036885113,-0.00013910608,-0.031336393,-0.025684662,0.07826151,0.028993478,0.049676936,-0.040493023,0.028021758,-0.011232509,0.02795082,-0.03090362,-0.0056093433,0.026303098,0.012162824,0.022435328,0.045605253,-0.040114798,-0.025220037,0.04643238,-0.05539831,0.031354394,0.039191958,0.0674881,-0.015321591,-0.017218003,0.04962238,0.011409299,-0.034015253,0.0146432975,0.022128155,0.036707714,-0.046759274,-0.034131564,0.04270086,0.04502395,-0.08166724,-0.059618317,-0.017515363,0.015882736,-0.0053362693,-0.009772235,0.06378356,-0.0071395207,0.05839248,-0.024006944,-0.0031033554,0.03739602,0.066642575,-0.0045650853,-0.0093179,-0.05929075,0.006780335,-0.03348613,-0.07465212,-0.089394525,0.044352703,0.05849392,0.047137745,-0.03373482,0.030928174,0.06731441,-0.02077346,0.023280213,0.011961881,-0.08326472,-0.05272196,-0.041517023,0.07168094,-0.03237718,-0.029924154,0.013365966,0.071223624,0.017044874,0.039599854,-0.04377271,-0.01607961,0.004752056,0.029493205,0.012618552,0.05774201,0.014677096,0.009463887,-0.072557084,-0.020467827,-0.0046315636,-0.03599785,-0.016940288,0.08274596,-0.08087343,-0.0012286014,0.065791,0.02581847,-0.0036894463,-0.016528327,0.037846144,0.032162078,-0.018692933,0.019741701,-0.0021571112,-0.0034838,-0.019083671,0.020230345,0.05226305,0.038323347,0.052232433,-0.001966132,0.025238704,0.0065282267,-0.0057888213,0.017846676,-0.0020321573,-0.05368084,0.017359331,0.011493026,0.0042198924,-0.10113398,0.022988532,0.031133119,0.043016646,0.025176272,0.01012467,-0.033493217,0.03917604,-0.028164336,0.04319641,-0.04879532,0.0071330685,-0.023040432,-0.02163355,-0.0171215,0.05825783,0.038561348,-0.010754438,-0.015545777,-0.023196938,-0.013127477,-0.010956383,0.032910597,0.028220227,-0.0059284633,0.0075877015,0.038659383,0.035906244,-0.021616092,0.01637296,-0.022060277,-0.053304866,-0.070501946,-0.022158127,0.0051362864,0.04260174,-0.01544322,-0.04437496,-0.0037683647,0.042083807,0.038725782,0.020038823,-0.015664505,2.3252936e-05,0.005517368,-0.05167662,0.024523487,-0.026395623,-0.03759639,-0.026114397,-0.042190436,-0.041910194,0.0011857474,0.0096084,0.03213313,-0.012486117,0.004234083,0.05694625,-0.0733403,0.011345394,0.0129458755,-0.00060569233,-0.03101696,0.036777563,0.015682856,0.015165347,0.049397986,-0.005954539,-0.05336252,-0.04750514,0.031366635,-0.008884062,-0.051098622,0.024762655,-0.04564386,0.018831484,-0.013529865,0.012274217,-0.03568474,0.018576186,-0.010938115,0.018287556,0.06648703,0.0032603783,-0.0028686232,-0.019983716,0.023313254,-0.034747493,-0.009360615,0.011824142,-0.023631524,-0.024789112,-0.025849186,0.004280611,0.06583274,0.043175504,-0.037535954,-0.02892233,0.0403805,-0.03328457,-0.040392313,0.056577116,-0.024933508,-0.0019160773,0.0390913,-0.021796824,-0.023856968,-0.016328221,0.029961953,-0.023080802,-0.050300013,-0.028207364,-0.025679504,0.055313773,-0.0126855895,0.0040537054,-0.054401465,-0.029777007,0.016421989,-0.047115494,-0.011374664,-0.022511221,0.019428372,-0.006274627,-0.04436947,0.06215525,0.0049435003,0.022091355,0.021566683,0.0055324063,-0.015080743,-0.029444505,-0.025406482,-0.031534865,-0.05111584,0.053530693,-0.08623052,-0.03568809,0.02378465,-0.052651044,-0.035667166,0.051501796,0.018305656,0.006967746,0.0050332113,-0.032182314,0.033403862,-0.011870235,-0.001269547,0.027931053,-0.012421364,-0.007363854,0.050834052,-0.02714222,-0.0066247024,-0.044495553,0.002041634,-0.037899897,-0.0151883485,0.039137725,-0.018242221,0.024541013,0.015768334,-0.031737532,-0.04284865,-0.008665545,-0.02322793,0.03966207,0.040368155,-0.04254367,-0.011949747,-0.00839253,0.024655275,0.034475677,-0.019894786,0.016426757,0.028714417,0.05420643,-0.0003777509,-0.03184808,-0.004973812,-0.013182644,0.012022715,0.012385443,0.033911206,0.057002954,0.0034198968,0.021403423,-0.057058513,0.03162643,-0.0029969628,0.056123998,-0.020129552,0.021825282,0.011467164,0.014775514,0.035373636,0.007916842,0.010399346,-0.0442671,-0.023255698,-0.025820563,-0.030292049,-0.014695994,0.0346476,-0.024820011,-0.049415316,-0.039808437,0.0033826593,0.023742825,0.046896804,-0.00889849,0.015003647,-0.037108824,-0.036099378,0.02554437,0.0044626445,-0.03262016,0.07782184,-0.015960908,2.3055259e-06,0.041446436,-0.03993119,-0.039050885,-0.06890853,-0.05800755,0.026757406,-0.03068265,-0.01880332,0.041990798,-0.023315243,-0.055675667,-0.053495333,0.07569685,-0.023811609,0.018311761,0.012893389,-0.03314415,-0.06293768,-0.00849421,0.015979055,-0.00069780514,-0.028878927,-0.08036789,0.0045972047,0.028552445,0.052587353,-0.015842129,0.019648308,-0.019244382,-0.01924466,0.0017305441,0.009285457,-0.035534386,-0.009956909,-0.02186948,0.006783018,0.0044605397,0.014783651,0.028809208,-0.040406853,0.0315704,-0.035647918,-0.0022771345,-0.0021330551,-0.010779685,0.049744412,-0.030614944,0.036210954,0.04337484,-0.020215461,-0.043898858,0.0007567104,0.02149785,0.027654726,-0.05342859,0.017675186,-0.035487022,0.02672245,0.00025738092,0.008436857,-0.0028516836,-0.040422767,0.03144561,0.010171999,0.012049676,0.05311386,0.036555473,-0.05675705,-0.044495594,0.017034674,0.06464588,-0.037119944,0.023533728,-0.028978227,0.039012514,-0.03854785,-0.041337233,0.0010019429,-0.051992465,-0.023713784,-0.022246378,0.02579861,-0.029270947,0.04402361,-0.018502396,-0.032278243,-0.049825013,-0.0028774373,0.03933388,-0.025472317,0.059460033,-0.013803149,0.010937642,-0.010882127,0.022052567,0.0049560433,-0.03804455,-0.007057308,0.012555504,-0.08890316,-0.039496455,-0.06474122,0.067042656,-0.011012865,0.06098842,0.025717715,0.0062689115,0.013412035,0.028878821,0.031218218,0.052294698,0.0140242735,0.024399055,-0.029608814,-0.0059731957,-0.014812455,-0.018251583,-0.012065326,0.051622663
embedding_2: -0.01698366,-0.022916054,0.012850798,-0.034566116,-0.046500884,-0.04850183,-0.07077587,0.009231875,-0.047281805,-0.009536573,0.043208376,0.028637929,-0.054193605,-0.08615122,0.0028069047,-0.0047362642,0.03545644,-0.048698667,-0.030807093,-0.010179833,-0.003201084,0.040969033,-0.009466529,0.051960073,-0.04795381,-0.069112316,0.03419168,0.059192393,-0.004922229,-0.0026536724,0.034921087,-0.016216423,0.048131272,-0.0063502267,0.07799662,-0.026068779,0.003934624,-0.05011569,0.016662097,-0.028506316,0.027162693,0.017211284,0.004489854,-0.03159652,0.07529611,0.012731434,0.052037362,-0.040717963,0.05564628,0.010224211,0.04746471,-0.023758655,-0.0078798635,-0.034187205,0.033876445,0.004723657,0.002087693,-0.010199,-0.03918642,0.025311247,0.034091942,0.041709922,-0.0051227775,0.02327161,0.03615357,0.00978769,0.014258323,0.033664078,-0.00840448,0.058362372,-0.0057412265,0.0062910584,-0.011094341,0.031487316,-0.04229185,0.025295097,0.022177272,0.014998971,0.035204936,0.014259689,-0.023147294,0.02061931,-0.051123932,0.034913465,-0.020284234,0.021765428,-0.026064135,-0.00027076836,0.0250827,0.081452735,0.017274411,-0.009436125,-0.010198745,0.017622957,-0.0057262573,0.0024341657,0.014284545,0.0020067813,-0.011004278,-0.0259681,0.021173788,0.052794922,-0.05258615,-0.01998631,0.012577505,-0.043926153,0.008502488,0.031449832,0.02382712,0.011979394,0.03089517,0.06790157,-0.0078119794,-0.026234383,0.08943633,-0.084533855,-0.010660937,-0.02473744,-0.017910562,0.061606858,0.012117629,0.03604352,-0.04934059,0.034323275,-0.025183411,-0.003201593,0.059983213,-0.024618225,0.004506291,-0.018431256,-0.007064941,-0.023421459,0.024975533,-0.043479707,0.047587205,-0.026405662,0.00052022736,0.02246863,0.0053085247,-0.09526765,0.041335873,-0.018646918,0.002905559,-0.023118494,-0.044441994,0.035060328,-0.065761656,0.008609019,0.071686566,0.042905513,0.026596693,0.0126999235,-0.001613476,-0.007962293,-0.012213,0.012038974,-0.037488833,0.0021755057,0.029523011,-0.050040208,-0.0048432974,-0.024564829,-0.063678876,0.027860181,-0.08054576,-0.032019105,0.022322547,0.014888809,0.013202761,-0.03226942,0.04298974,0.020480031,-0.028553171,-0.0040624514,0.048228364,-0.0045644236,-0.027990755,0.037549682,0.035051405,0.05678927,-0.009947518,-0.0070425505,0.030718591,0.08726347,-0.027488722,-0.007647969,-0.006071487,-0.03461583,0.015959399,0.051912505,0.02741481,-0.10068027,0.026733441,0.028229982,0.047969103,0.011729315,0.024749782,0.04375418,-0.021556634,0.0064261626,0.034266848,0.02873557,0.058720246,0.052987114,-0.035794046,-0.011519805,-0.007717985,0.034386188,-0.018983206,0.02631857,-0.07161613,0.011748153,0.006668541,-0.009549696,-0.0022768541,0.07108025,0.05708772,-0.0058759274,0.007941076,0.032760397,-0.023586504,0.055617373,-0.0028911205,-0.015378268,0.03536993,-0.03304085,-0.051749766,0.06386532,0.039903738,-0.012935171,0.028118988,0.040829994,0.054981723,0.04835581,-0.045019537,-0.044440273,0.046798594,-0.06244462,-0.04123996,0.024565993,0.026555417,-0.04080249,0.0036407264,-0.1088568,0.05632807,-0.013032261,-0.021910647,-0.008799164,-0.027501266,-0.069519274,-0.0038114884,-0.050766215,0.015292095,0.012218507,-0.030393114,-0.038439713,-0.026430218,-0.014905524,-0.021157002,0.0084787365,-0.06741542,-0.028239636,-0.03262808,-0.0009144781,-0.030983215,0.019888243,0.010889168,-0.02169882,0.035044122,-0.0012747176,-0.056050964,0.051591594,0.012440394,-0.008482908,0.041888267,0.025535922,-0.028602365,-0.057897516,-0.040680736,0.05110423,-0.013249161,-0.034872532,-0.010112833,0.014383656,-0.03522887,0.004992874,-0.009552238,-0.08145431,-0.014909366,-0.03541004,0.011113419,0.07336952,-0.074953005,0.05088445,-0.046907328,0.016837819,-0.022967048,0.07149113,0.011208497,-0.007025357,-0.02153537,0.0059015304,-0.027188295,-0.00210372,-0.016426722,-0.016831676,-0.059429422,0.012423939,-0.0030703899,-0.019639375,0.044197734,0.09703381,-0.016434215,0.013566185,-0.01983469,-0.009887074,0.07965609,0.047736626,0.05212625,0.0044981563,-0.0068299407,-0.01458411,0.009451894,-0.024461867,0.022053285,0.030670362,-0.009868671,0.08025026,0.048072238,-0.06511446,-0.022812992,0.009771062,-0.054259565,0.042170946,0.079360805,0.08071009,-0.02303683,-0.040402584,0.0351697,0.017004646,-0.034556415,-0.012213397,0.015705774,0.035968285,-0.03507237,-0.006062588,0.06430274,0.034575727,-0.054295454,-0.05930269,-0.028447742,-0.0021069963,0.005965773,-0.0007727263,0.036669765,-0.012011622,0.053469907,-0.038730573,0.024395747,0.051890567,0.061805755,-0.0074970517,-0.016137635,-0.032448966,0.007557893,-0.025102686,-0.07633846,-0.098298006,0.04001142,0.056500103,0.039983533,-0.03858744,0.041995548,0.040039074,-0.016541569,0.015495723,-0.003414369,-0.11753649,-0.049929895,-0.06410546,0.08803615,-0.010541408,0.0027621796,0.010610122,0.06809856,-0.024864161,0.050345685,-0.044585504,-0.019715056,0.02612252,-0.002946066,-0.003857434,0.039851192,0.024096018,0.025514776,-0.06927911,-0.012604098,-0.025202518,-0.03380432,-0.019978546,0.07530366,-0.064898156,-0.014911186,0.03929582,0.0030935728,-0.008433278,0.007444745,0.0515483,0.024468662,-0.03103554,0.012385596,-0.012334013,0.028212864,-0.008138486,0.011790696,0.028169222,0.056865383,-0.0009089591,-0.025826678,0.0049483376,-0.02861291,-0.0013844039,0.021298155,-0.0052097477,-0.05641079,0.02394515,0.017780302,0.026679287,-0.09336099,0.010959382,0.04182443,0.020833831,0.03696279,-0.0011069842,0.021232221,0.043913554,-0.02348401,0.05583563,-0.059822503,0.030808546,-0.0062963977,-0.043051854,-0.023801366,0.055833787,0.022214768,-0.011843379,0.0036354433,-0.012925192,-0.021515103,0.008044911,0.045236263,0.0456488,0.0043531596,0.01998826,0.014711943,0.060780607,-0.022042379,0.0049130074,-0.023233736,-0.025914708,-0.055258106,-0.0008716856,-0.030822765,0.013435242,-0.030750519,-0.029315073,-0.0061754817,0.022722993,0.04378521,0.015899785,-0.020677952,-0.013211875,0.019290453,-0.038168192,0.023862885,-0.01039756,-0.028128536,-0.012340237,-0.04146089,-0.0044994904,-0.01634187,0.03474384,0.021922573,-0.008264984,0.013929366,0.049956962,-0.07702208,0.009531557,0.019704878,-0.035277557,-0.025204618,0.009739391,0.026683902,0.0046864636,0.020793261,3.2300434e-06,-0.03738719,-0.028837778,0.031662818,-0.018845307,-0.057734977,0.020450871,-0.0370328,0.036828715,-0.033972178,-0.024064312,-0.019217033,0.03134855,-0.011797299,0.0054032463,0.10107342,-0.027006926,0.0003104583,0.0068626753,-0.007167221,-0.01755258,0.025462538,0.005687461,-0.040926564,-0.013828782,-0.02506781,-0.020653546,0.06415355,0.055555433,-0.023133615,-0.022511614,0.057497256,0.0006444197,-0.04602622,0.04753693,-0.010629141,-0.02021812,0.035441916,-0.013491024,-0.04142264,-0.020722948,0.02110702,-0.0006764144,-0.07068788,-0.0059694764,-0.015697937,0.045454606,0.0020150456,0.010360981,-0.044802845,-0.01063809,0.018771637,-0.06601141,-0.026125478,0.015295988,0.012398803,0.023023203,-0.031200722,0.040440045,0.024366643,0.036052253,0.020268403,-0.010965839,-0.027157217,-0.033518832,-0.013802657,-0.03510709,-0.05794085,0.09623801,-0.09813641,-0.05343753,0.022311207,-0.05473717,-0.03250429,0.030367548,0.01245626,0.0033202404,-0.000860746,-0.050667867,0.012262471,0.010889565,-0.00798797,0.027760345,0.013350704,0.0022327185,0.043680754,-0.024962477,-0.033838727,-0.018594064,0.018902931,-0.025724243,-0.013753063,0.050067548,-0.0058331178,0.013962089,-0.03344583,-0.00094142166,-0.045759376,0.017532777,-0.021883812,0.050417244,0.051242422,-0.029564897,-0.00054923055,-0.0039633424,0.051458515,0.007919977,0.0040571354,0.030643592,0.02076545,0.04189513,0.02185707,-0.023589527,0.010819804,0.020025603,0.035142686,0.008547311,0.05995445,0.04222287,-0.012932791,0.012381066,-0.051578965,0.006381538,0.005040234,0.030445993,-0.034565497,0.017715769,0.033913787,0.010602778,0.051348105,0.03069646,0.012581218,-0.031608846,-0.039792527,-0.02333676,-0.029465986,0.007624046,0.026819162,-0.04070976,-0.04146194,-0.011689752,0.009317505,0.010612172,0.038808137,-0.042143118,0.0453234,-0.024365447,-0.05281871,0.029953618,-0.003339505,-0.06878295,0.045823973,-0.01695167,-0.006028012,0.052472845,-0.02499044,-0.014504704,-0.085093364,-0.052427717,0.0008878129,-0.030898536,-0.027664473,0.018914504,-0.024393473,-0.054270167,-0.061499286,0.063353896,-0.023201901,-0.015193562,0.026939413,-0.031681295,-0.052548375,-0.008771039,0.018153775,0.03088876,-0.058513746,-0.0591123,0.009275369,0.05611217,0.05490384,-0.014746315,-0.0036780967,-0.036684882,-0.019834613,-0.0055712922,0.0171159,-0.02845316,-0.01758968,-0.01743069,0.006193579,0.016449608,0.010683517,0.028047992,-0.022261428,0.048315488,-0.025792653,-0.018223092,-0.006222434,0.0021813724,0.040401712,-0.040590275,0.038315635,0.019658644,-0.03577417,-0.0012981695,-0.0057932306,0.006898752,0.018635485,-0.020217136,0.020972867,-0.052064855,0.02246088,0.0041500973,0.0036812765,0.0016590918,-0.04963755,0.026412183,-0.017227251,0.010436764,0.02516634,0.041666068,-0.0554453,-0.052456237,0.033521462,0.057532206,-0.037811898,0.043374397,-0.05132287,0.03289928,-0.040785734,-0.019752467,-0.0069774645,-0.043520384,-0.03139202,0.022618027,0.037910696,-0.03667102,0.05788703,-0.005273517,-0.038862247,-0.021965384,0.008028584,0.05662756,-0.008600795,0.052129064,0.016941657,0.024287531,-0.024259336,0.03994572,0.012127651,-0.037326857,-0.018627208,0.021386549,-0.07675152,-0.033880506,-0.03824035,0.034827854,-0.033061393,0.050689533,0.02152856,0.042331956,0.00017446635,0.026588839,0.029384052,0.029722568,-0.01979178,0.020507295,-0.014797686,0.019583888,-0.027115177,0.0045216805,-0.024864879,0.06507454
embedding_3: 0.011543707,0.008471341,0.04399306,-0.061460484,-0.038187105,-0.07705422,-0.06699967,-0.014984166,-0.03688511,-0.006429863,0.031896662,0.047703408,-0.06705321,-0.07219389,-0.029002063,0.014847209,0.036405083,-0.04552542,-0.038088173,0.0052583185,-0.018886022,-0.008774973,-0.032210533,0.05801433,-0.041747138,-0.10129649,0.01930076,0.024082458,-0.03254576,-0.0005759974,0.058865994,-0.0046404214,0.032917038,0.011771512,0.082268536,-0.011616981,-0.021363974,-0.07971438,0.008476606,-0.016077723,0.050398957,0.028941095,-0.017944649,-0.009259264,0.06522116,-0.010669981,0.018705852,-0.014627524,0.059292663,-0.0022557916,0.024683027,-0.006503205,0.0072882255,-0.049814235,0.0512515,-0.013184876,-0.036202095,-0.0006054165,-0.04154904,0.009336797,0.039527114,0.032523695,0.022174845,-0.019315867,0.04516599,0.038938493,0.044054113,0.070758894,-0.021685187,0.01876397,-0.047082484,0.031388532,0.011792956,0.015841352,-0.036860496,0.012614772,0.004353866,0.017324321,0.0012621606,-0.018828895,-0.050948095,0.035331998,-0.035228163,0.06738952,-0.0027152258,-0.012010682,-0.046090577,0.028735964,0.027647618,0.059421204,-0.023972312,-0.020020239,-0.013111745,0.015757952,-0.010057744,0.014349286,0.0018079323,0.015567875,-0.013507872,-0.042817015,0.014177745,0.055771578,-0.03760785,-0.017878497,0.008937293,-0.032740198,0.034318212,0.0075603365,0.011406567,0.035315853,0.029535377,0.06471733,0.007461293,-0.03623976,0.06995683,-0.038895875,-0.014390386,-0.03928317,-0.05274247,0.05659734,0.0012618246,0.019517971,-0.028483007,0.006392861,-0.035672612,-0.009235102,0.07481043,0.0007243735,-0.018792998,-0.022969127,-0.020948665,-0.008914504,-0.0052560675,-0.01411983,0.055453733,-0.07411298,0.026821196,0.020257926,0.007340421,-0.095333785,0.037750136,0.0069117597,0.027440663,-0.05593193,-0.049362563,0.024571536,-0.059399683,0.031297583,0.058069218,0.04842148,0.00881436,0.019729432,-0.030854682,0.0020182754,0.02177572,0.033772588,-0.041427992,-0.013996319,0.042266406,-0.057400655,-0.00036343545,-0.034418385,-0.053434778,-0.0004035246,-0.08829706,-0.030384526,-0.011925983,0.015938409,0.015450229,-0.01690104,0.07014997,0.020450162,-0.008510145,0.006184071,0.04493539,-0.020748772,-0.048254453,0.05975297,0.024564093,0.02070239,-0.003555999,-0.008000328,0.031259194,0.043474164,-0.034593362,-0.0026715235,-0.0058089388,-0.022524979,0.008951776,0.063273415,0.04528185,-0.11392772,-0.0016950738,0.042001095,0.0071604024,-0.019789942,0.010878634,0.031540144,-0.013622739,-0.0028020814,-0.0021449723,0.012785626,0.050475452,0.052583534,-0.022667408,-0.0121504795,-0.001807729,0.046911683,0.007812906,0.038421858,-0.043853804,0.01509175,-0.0037664133,0.010527806,0.029056272,0.076726206,0.07339147,-0.055205703,0.031842917,0.048126172,-0.022568345,0.050473645,0.01844559,-0.033624474,0.035239894,-0.0063770143,-0.04273145,0.05256525,0.030811561,0.015544106,0.013190992,0.026337186,0.028149145,0.06440508,-0.01986035,-0.045160927,0.057384994,-0.0595272,-0.064344116,0.0047375294,0.05513999,-0.04803418,0.03559561,-0.07729345,0.047140025,0.00078475673,-0.06285168,0.010241513,-0.018671855,-0.0548857,-0.0054992805,-0.030736828,0.017464356,0.019853648,-0.05117236,-0.026398443,-0.03139064,-0.041154012,0.017198212,-0.0016054049,-0.018085403,-0.0465781,-0.0037344187,-0.020609625,-0.05021815,0.0007082301,0.0061934856,0.0052490896,0.027791614,0.027977822,-0.034789156,0.04398897,0.024582118,-0.0321381,0.07867769,0.018466711,-0.020904632,-0.08497513,-0.03712861,0.020562213,-0.032425575,-0.051290214,-0.007923504,0.00874034,-0.022780286,-0.0076274304,-0.027774386,-0.024039723,-0.00829723,-0.036704745,0.0024873575,0.034106452,-0.07958989,0.04553488,-0.06849436,0.027857075,0.0038289952,0.053138446,0.018245311,0.004730575,0.01482291,0.042373654,-0.0509704,0.018131468,-0.053815845,-0.052293643,-0.026859641,-0.021930411,0.014348914,-0.0106388815,0.012523628,0.061577577,-0.007964958,0.008931772,-0.018093675,0.016073111,0.04791841,0.05512243,0.037069328,-0.00975733,-0.003198779,-0.04885956,0.010075522,-0.01929843,0.028669579,0.042534046,-0.0154157,0.057583228,0.0442787,-0.04663899,-0.0215276,0.01595227,-0.040409166,0.034277894,0.018985212,0.069866836,-0.025006885,-0.002687891,0.051735025,0.0049871127,-0.036271773,-0.00417321,-0.0048257746,0.03619416,-0.027451295,-0.010611372,0.028454175,0.03272337,-0.08195564,-0.060188685,-0.026610652,-0.00081542693,-0.037607346,0.011363537,0.05474154,-0.01746846,0.04614774,-0.029799836,-0.009312523,0.024999162,0.07342825,0.005076086,-0.019378683,-0.026976597,0.018158043,0.011500852,-0.05062427,-0.08072584,0.05800375,0.03848589,0.059027877,-0.028973207,0.052083466,0.011041421,-0.025644446,0.019585203,0.022427624,-0.056832034,-0.021050867,-0.08183658,0.11375609,-0.0022294202,-0.024350997,0.030354165,0.053332742,-0.035049528,0.03716281,-0.042768504,0.02577982,0.022616386,0.0068519246,-0.017235214,0.03429866,-0.00525509,0.039050743,-0.060694195,-0.07491291,-0.019599618,-0.053926412,-0.03208366,0.08122458,-0.06333286,0.016031645,0.062962174,-0.0010797204,-0.017155193,0.007908304,0.0375386,0.002921621,-0.026325267,0.020417854,-0.027832124,-0.003678943,-0.003796917,0.04206238,0.031223353,0.03755301,0.0077610766,-0.0012511552,-0.0004798995,-0.026118707,0.007899366,0.021796957,-0.021608142,-0.045082383,0.08770913,-0.0054808175,0.02532928,-0.098503076,0.014302324,0.010684164,0.047915697,0.024408776,-0.0017110443,0.022929061,0.043465525,-0.0507918,0.015168556,-0.031048255,0.02205393,-0.0153588895,-0.044681177,0.014333991,0.03552541,-0.0039605205,0.0055852584,-0.030598473,-0.011366425,-0.009183443,0.023403198,0.03241842,0.030513436,0.0010269426,0.013319697,-0.0032867093,0.03858787,-0.007183091,0.0010956057,-0.023220252,-0.023266701,-0.056418158,0.0072900425,-0.013503617,0.0017336182,-0.05076965,-0.0022681921,-0.0074098627,0.0511393,0.031139238,0.010225315,-8.216132e-05,-0.035968903,-0.03120843,-0.028560644,0.012165122,-0.012351039,-0.018828196,0.0067590447,-0.047667325,-0.025741413,0.01500113,0.05819356,0.011552386,-0.016276773,-0.0046898695,0.05013776,-0.064569116,-0.027676411,0.04716248,-0.01927635,-0.008497054,0.0039122575,0.0326558,0.032950033,0.015251985,-0.0055877874,-0.009532712,-0.028897544,0.026271569,-0.013234598,-0.04670529,0.03694472,-0.01990193,0.05288984,-0.03501925,-0.002620547,0.012532312,0.014865045,0.022177098,0.025226502,0.07151089,-0.026755625,0.002653723,0.033348456,-0.015370101,-0.013867541,0.012947511,-0.009850364,-0.020639477,-0.04293776,-0.02200819,-0.0014392625,0.03593277,0.024691718,-0.013472688,-0.025733072,0.032248314,-0.0034834044,-0.030949157,0.057462364,0.0017341534,-0.014400552,0.06074001,-0.021357648,-0.03939393,0.017363664,0.032976367,-0.011713464,-0.047094263,-0.025386583,-0.027738584,0.02062603,-0.011266012,0.015405291,-0.05427855,0.02295004,0.024894081,-0.057050385,-0.014101756,0.0032046633,0.021248095,0.011754082,-0.06952899,0.020061733,-0.009655588,-0.018709466,0.03152013,0.006789671,0.0020019994,-0.029000882,-0.030219855,-0.032589186,-0.03283339,0.064768575,-0.06388617,-0.04487237,0.03273543,-0.049159903,-0.014694423,0.050650056,0.009959034,0.031978674,0.011635195,-0.051468708,0.021753393,0.016305473,0.015738185,0.0015961769,-0.024001328,-0.011569861,0.046829417,-0.023382174,-0.009286597,-0.010423545,0.0005756619,-0.020252975,-0.008268132,0.04747488,-0.03560092,0.047810204,-0.008629914,-0.014745232,-0.043847486,0.027007235,-0.007606702,0.050072007,0.060870577,-0.057976693,0.006763603,0.024536915,0.05169879,0.011988755,-0.040419832,0.014198248,0.016718732,0.041951284,0.045763254,-0.067954004,-0.00825572,-0.011260358,0.061213475,0.011832051,0.028194867,0.027131455,0.016014496,-0.0017994143,-0.062434684,-0.025871681,0.0116680255,0.047227312,-0.0077161905,0.048660018,0.04481697,-0.019729879,0.05051062,0.026535576,0.0219243,-0.06325548,-0.03350481,-0.014578107,-0.023221254,-0.010400956,0.021236641,-0.0047147884,-0.019226538,-0.025379447,-0.00037035067,0.027957032,0.007206157,0.02335673,0.0060785175,0.001020319,-0.06722007,0.046313748,-0.0036121693,-0.07333461,0.0011624258,-0.009788818,0.00014657131,0.047471248,-0.024690963,-0.027766466,-0.08176194,-0.044264607,0.006851668,-0.018258413,-0.010350574,0.02550453,-0.04678403,-0.01574082,-0.06542136,0.054294415,-0.033619907,-0.022468535,0.0043816557,-0.002901212,-0.00044220107,-0.0291615,0.012527251,0.0054899924,-0.051191237,-0.03979391,0.032930877,0.03772952,0.044892803,0.0030206244,0.014570068,-0.058657065,-0.026604136,-0.01190243,-0.008782255,-0.03170309,-0.033694353,-0.011197288,-0.00042969343,-0.0080568055,-0.016947683,0.054858062,-0.03823511,0.04709799,-0.012786162,-0.027197283,0.029921338,0.008157383,0.02202887,-0.036495287,0.05420681,0.009162808,-0.036308825,-0.017432338,-0.019026725,0.014364449,0.020933941,-0.04479369,0.03355391,-0.05295168,0.03586699,-0.03184187,0.049018197,0.002126701,-0.031522963,0.023268256,-0.0033954752,0.015925089,0.019166026,0.015546143,-0.04384751,-0.04166853,0.013870369,0.035378423,-0.052738495,0.041188166,-0.045100827,0.06892505,-0.057247747,-0.034448728,-0.040506538,-0.05028826,-0.015648242,0.003516433,0.049001258,0.00053753494,0.04050055,0.0033784905,-0.0579308,-0.023206996,0.008113681,0.063350454,-0.017758615,0.104988374,0.009875527,0.0074110106,0.002677161,0.040560395,0.013024036,-0.045397352,-0.0020678297,0.06206201,-0.09495223,-0.04308812,-0.03765306,0.037079602,-0.04853982,0.034670446,0.0073597184,0.03405334,-0.0058142524,0.029151376,-0.0073341243,0.041620634,0.009672704,0.02438841,0.0012239872,0.0082676085,-0.03456788,-0.047387343,-0.025519686,0.09180023
embedding_4: -0.020816248,-0.02741163,0.040200885,-0.05359689,-0.03952838,-0.04873583,-0.065490544,-0.035407588,-0.037893984,-0.03720353,0.051093526,0.060682245,-0.03744218,-0.06563341,-0.0020666367,0.025787039,0.017164314,-0.03798529,-0.040640213,0.0031431648,0.017110487,-0.008031492,-0.01967075,0.03799635,-0.043033075,-0.116340235,0.010057353,0.024069615,-0.040618405,0.02961796,0.065047145,-0.0247054,0.025461517,-0.013206217,0.055427648,0.0012149794,-0.012670012,-0.022596862,0.035163548,0.011293849,0.011970652,0.019377181,-0.016440623,0.00078029826,0.0670873,-0.00659523,0.05207618,-0.033081505,0.0071030445,0.0015534009,0.012705704,-0.02764275,-0.013002992,-0.06318936,0.042998053,-0.0037492719,0.0010673536,0.021926159,-0.04321106,0.02039996,0.015339458,0.0169401,0.0018978013,-0.0205016,0.028953675,0.045238048,0.044547476,0.058452044,-0.014636759,0.01545633,-0.0349301,-0.0022317823,0.016864471,0.02429912,-0.045723446,0.017953057,0.01306708,0.036423232,0.0107372925,-0.0006309783,-0.07062271,0.01859729,-0.024016254,0.047020916,-0.050569497,-0.015400693,-0.03194703,-0.016509747,0.017783752,0.048318446,0.01920699,-0.04614535,0.006092814,0.00072244526,-0.018540982,-0.017189128,0.020574395,-0.036619354,-0.013132324,-0.049166758,0.0052025802,0.05182733,-0.008478042,-0.009924675,0.017392192,-0.02536395,0.023491617,0.034486085,0.004060266,0.031939466,0.03924164,0.038595747,0.010169098,-0.013652169,0.07683316,-0.02483859,-0.0032584132,-0.06660049,-0.05545419,0.058985937,0.031226693,0.03319126,-0.0056040394,0.012696673,-0.027244855,-0.0136977695,0.076676354,0.014806916,-0.039639775,-0.019963693,-0.002908997,-0.016439537,0.016288884,0.012331451,0.042072017,-0.10447431,0.043197665,-0.012823676,-0.017363077,-0.07622787,0.026565941,0.010163028,0.0436249,-0.0645636,-0.041142292,0.03092963,-0.051247142,0.03795105,0.07628225,0.033645127,0.018465437,0.022522492,-0.03281122,0.005512911,0.020774918,0.054345656,-0.052187562,-0.032935463,0.05890148,-0.05460057,0.0043933745,0.010965029,-0.061380967,0.03520632,-0.074521534,0.0039126906,-0.019550383,0.022881418,-0.0013645474,-0.029995786,0.062007748,0.008948435,-0.027187258,0.032138236,0.042272493,-0.011208134,-0.026758514,0.070726015,0.0616917,0.031453393,0.013490157,-0.027190646,0.032102823,0.06889765,-0.01379948,-0.014151483,0.023198025,-0.02961409,-0.005529941,0.053101014,0.025671009,-0.076575994,0.0006098541,0.057478495,-0.049761515,-0.0068869037,0.03164361,0.04905355,-0.019557534,0.0067075123,0.0051012067,0.031240717,0.047475062,0.065215304,-0.007496465,-0.010014309,0.008677077,0.025045507,0.016221186,0.057835497,-0.059582505,-0.0034182973,-0.008563665,0.00068218395,0.016656,0.09078793,0.08447731,-0.026129214,0.009906145,0.030974088,-0.013984121,0.04945869,0.03404992,0.0053050453,0.05851615,0.0025809696,-0.03811509,0.04470325,0.0121653965,-0.007528861,0.018185804,0.04365831,0.012098489,0.058683205,-0.014657249,-0.04471922,0.037637204,-0.08811271,-0.043660082,-0.021259652,0.041995905,-0.06948765,0.025728673,-0.07249111,0.063679785,0.05068731,-0.026958581,0.0038115561,-0.012459667,-0.039629247,-0.0011986219,-0.045075446,0.00020027482,0.01490153,-0.038521245,-0.028539574,-0.032639083,-0.029432971,-0.020509224,0.0015397022,-0.026330555,-0.031236824,-0.0058494676,-0.033709697,-0.05681527,0.0013669202,0.054119103,0.009165634,0.020923374,0.024169058,-0.04448389,0.0011442773,0.033166196,-0.0038061931,0.064039856,0.030395806,-0.008373612,-0.056665678,-0.061861385,0.0435419,-0.029255021,-0.07098273,-0.016622864,-0.011353058,-0.035303764,0.020575922,-0.013714185,-0.03889321,0.012967642,-0.028201018,-0.023434766,0.028292675,-0.078938,0.009214873,-0.06090815,0.019261157,-0.009572538,0.049659036,0.057977073,0.011061917,-0.0011216712,0.0308867,-0.034391724,0.01591636,-0.052263733,-0.06285658,-0.03417191,-0.022957262,0.0032229403,-0.01244588,0.019548098,0.06395338,-0.019416971,0.016047634,-0.011595851,0.008867732,0.04299371,0.050464116,0.017702293,-0.013915797,-0.030591704,-0.02925086,0.02639289,-0.023742335,0.01291358,0.04688413,0.013564006,0.014841583,0.034294467,-0.05322159,-0.03443531,0.037683778,-0.03322155,0.02438077,0.022285728,0.044943344,-0.019710869,0.0019237368,0.015390977,0.03133948,-0.03940201,0.01163281,-0.023028854,0.019199817,-0.00955546,-0.0074624424,0.03949241,0.045646917,-0.052056223,-0.047852904,-0.009334254,0.006626634,-0.030707844,-0.0046086423,0.015704626,-0.009381376,0.07145092,-0.017318767,-0.026988046,0.04873564,0.059111338,0.020426542,-0.019096376,-0.014554416,0.0036185563,0.010832764,-0.039062284,-0.06885313,0.055250615,0.066217184,0.042299457,-0.015962003,0.03129412,0.053283412,-0.058082394,0.06728962,-0.007849094,-0.08435366,-0.059893556,-0.07558747,0.07200382,0.00039358283,0.003968166,0.06112677,0.0518404,-0.015918836,0.013549873,-0.029018277,-0.010265951,0.010199654,0.0007673517,0.013029387,0.03636531,0.004388422,0.01714721,-0.07927208,-0.080766864,-0.042413495,-0.015624789,-0.00069100905,0.07614807,-0.07723597,0.015530709,0.06305457,0.010466979,-0.01336694,0.012639121,0.034122095,-0.018015826,-0.00768363,0.00078908965,-0.022059305,-0.028143084,0.026319861,0.04169302,0.023759743,0.023760123,-0.0033704534,-0.025236754,-0.023102865,-0.014293975,0.010264423,0.0074962126,-0.009360783,-0.05528095,0.062539,0.024346186,0.013416789,-0.09841329,-0.005256907,0.0035052125,0.056732517,0.020462347,-0.008883452,0.0030035554,0.061490614,-0.032074973,0.02441941,-0.057356797,0.0139036225,-0.027214957,-0.043122534,0.0025674305,0.030213522,0.03281417,0.014129626,-0.029014405,-0.0041607656,0.018266331,0.037512105,0.018133068,0.06969736,-0.029024316,0.05945001,0.006347036,0.028750317,-0.002697524,-0.018590411,-0.028767549,-0.029356156,-0.06340753,-0.011873835,-0.028066948,-0.019262377,-0.05604851,0.0022588142,-0.010719758,0.07584156,0.056932725,0.022032311,-0.01534894,-0.005425398,-0.008562659,-0.0024254092,0.0105190445,-0.019042095,-0.03096796,0.024314515,-0.03877651,-0.01905199,0.017997213,0.030074978,0.02135544,-0.041298185,-0.025764002,0.07039095,-0.06547083,0.0101892585,0.036970492,-0.008365144,-0.012775071,0.023516042,0.023244683,0.024197893,0.009962237,-0.01802866,-0.020847036,-0.039548934,-0.007749113,-0.019464284,-0.044880778,0.01039436,-0.009878975,0.04941949,-0.030767359,0.0019722653,0.0018231008,0.003311063,0.03518648,0.026220677,0.05512249,0.0143758245,0.0016198475,0.006525131,-0.016546668,0.025449835,0.022272376,-0.017588606,-0.017997747,-0.018411037,-0.040563185,-0.03333903,0.051727436,0.06218946,0.002365219,-0.029930217,0.056462694,-0.023843473,-0.06832766,0.06819807,-0.0095732175,-0.0015552175,0.02947458,-0.024381025,-0.029595334,0.00041998643,0.042436887,-0.011756414,-0.050258484,-0.026595782,-0.009833097,0.019491212,0.009301544,0.03042997,-0.04941965,0.031705223,0.05787815,-0.031200506,-0.024497839,-0.01765693,0.031180928,0.030215744,-0.082258485,0.025746793,-0.016402436,0.010814386,0.024814725,-0.034355547,0.0037832237,-0.02943756,-0.026136946,-0.034353912,-0.058455717,0.03363678,-0.043570846,-0.030382317,0.02502283,-0.03710142,-0.010373646,0.047254182,-0.010001262,0.018031893,0.003594415,-0.030561429,0.024089875,0.0066267317,0.009239417,0.03024623,-0.010043382,-0.03178162,0.03868328,-0.022193762,-0.013929259,-0.007467502,-0.027230138,-0.0154393,0.0054233344,0.048653755,-0.022005277,0.020767676,0.010758841,-0.02778786,-0.020399192,0.019503152,0.0043309997,0.009615152,0.038951676,-0.031670455,-0.041271187,0.02163531,0.03389439,0.03681827,-0.031461053,-0.008548973,0.01562646,0.05582227,0.028219633,-0.052808132,-0.0014043495,-0.0023965158,0.032447796,0.0014625057,0.0019565762,0.057016052,0.04037529,0.008450367,-0.056440428,-0.016131824,-0.0035341117,0.03637156,0.024157623,0.07364736,0.0194774,-0.011507433,0.049174145,0.043659188,0.020850461,-0.05092821,-0.0406484,-0.009408938,-0.036508575,0.0051950268,0.057288058,-0.032888833,-0.049699396,-0.0075485865,-0.0070551448,0.030455044,0.030640304,0.024040682,0.033083167,0.00012931145,-0.055279553,0.049110442,-0.00067644,-0.06922857,-0.016478239,-0.0075428425,-0.001445931,0.02585298,-0.049321476,-0.05082887,-0.06579448,-0.038287718,-0.010054486,0.007936395,0.02372506,0.029618025,-0.02548122,-0.017499018,-0.104971685,0.05807329,-0.042529568,-0.019868365,-0.02027116,0.02230395,-0.015096747,0.0024979063,0.018856581,0.028112743,-0.054514855,-0.036754586,0.020480296,0.016205583,0.029352218,0.0040821615,0.017925775,-0.04395271,-0.022579543,0.013129546,0.00015853236,-0.046512194,-0.026778737,0.0018572543,-0.0006149264,-0.021814749,-0.0068122777,0.023155808,-0.052199643,0.04654446,0.003454915,-0.024618708,-0.0053855563,0.036969263,0.04439843,-0.030324636,0.06646102,-0.028090306,-0.019585172,0.01246656,0.022448262,-0.0004441813,0.0020527546,-0.05252883,0.022382462,-0.054418694,0.04858807,-0.05463567,0.055696618,-0.0032436466,-0.05291729,0.0008656324,0.010570684,-0.013543745,0.025644736,0.029892,-0.03508175,-0.03834943,0.034311928,0.005997653,-0.055019926,0.022483096,-0.046746388,0.037943184,-0.07440151,-0.009676869,-0.033669904,-0.0077446937,-0.048608266,0.006574435,0.05449053,-0.00960343,0.05815456,0.013639119,-0.055013277,-0.03502933,0.033626568,0.039148428,-0.024015892,0.063641645,-0.017040202,0.0013634501,0.008264081,0.0043434645,0.012772257,-0.017622221,-0.016500294,0.07709713,-0.080749325,-0.0462388,-0.041535728,0.044500466,-0.03613682,0.03087811,0.042208076,0.036596842,-0.0016796713,0.022551427,0.009459253,0.042818822,0.027529037,0.049124226,0.018842185,0.016243476,-0.04015392,-0.06486731,-0.013761383,0.08031709
embedding_5: -0.011509705,-0.031759065,0.062753096,-0.07113066,-0.033713516,-0.06837222,-0.07905547,0.002799414,-0.031534005,-0.012500684,0.03762577,0.037166975,-0.062673464,-0.09127649,0.006893247,0.023906408,0.004248523,-0.03608358,-0.056733727,-0.028478853,-0.0033266756,0.010292618,-0.019496413,0.027989939,-0.0349506,-0.08514198,0.039590962,0.038036432,-0.022180554,0.03009845,0.056714766,-0.030439496,0.007143874,-0.04316585,0.058747448,-0.011039805,-0.013560196,-0.02650484,0.022270977,0.0004843485,0.036695,0.000809001,0.017931482,0.009980705,0.041404158,0.036528297,0.062456306,-0.036820672,0.03412571,0.023857145,0.001195332,-0.03642355,0.005900813,-0.045851238,0.041006114,0.04870162,0.0068580755,0.016829714,-0.02310293,0.032021355,0.027634863,0.034863263,-0.007749779,-0.009289839,0.035477903,0.035677336,0.019924665,0.032272033,-0.009377795,0.019300114,-0.049563456,-0.007323557,0.023395443,-0.008390101,-0.0837374,0.04208812,0.00940215,0.04495772,0.008863118,0.03296338,-0.068104155,0.057268664,-0.027440581,0.04263997,-0.052328534,-0.017156618,-0.015933247,-0.017490009,0.057345696,0.029046953,0.021883579,-0.02594611,-0.005897021,0.023045981,-0.022645276,0.005874483,0.051245097,-0.051747628,-0.046562374,-0.048680853,0.025720427,0.058071576,-0.036177944,-0.010593588,0.0059816195,-0.051945094,0.034262042,-0.014264167,0.0072862282,0.018457524,0.067285255,0.049541004,0.015925903,0.0119874505,0.10055722,-0.036434177,0.0011518819,-0.084248245,-0.04164807,0.035199482,0.014304175,0.04274405,-0.016389584,0.010315402,-0.02445933,0.0077052712,0.059748836,-0.0008581108,0.003446479,-0.02760395,0.006429494,-0.007601465,0.03324964,0.008085605,0.066124536,-0.081127815,0.038270786,0.0008335111,-0.076606184,-0.076991335,0.016122453,0.004807541,0.047033645,-0.04144238,-0.042590566,0.0046515544,-0.015269998,-0.004387702,0.07517725,0.01777695,0.0056174765,0.03234231,-0.0057063447,-0.0038000627,0.0012699054,0.03762626,-0.031870022,-0.024949636,0.03823304,-0.060345147,0.031598996,0.01030715,-0.033223465,0.011751168,-0.08046561,0.017673012,-0.009960726,0.024914153,0.004029157,-0.05084873,0.06505995,-0.010016199,0.0046770414,0.018432323,0.022623084,-0.006396983,-0.039269816,0.049657866,0.0667189,0.021689462,0.00017947331,-0.015197645,0.015611076,0.043534998,-0.03566052,-0.04310993,0.014451072,-0.018950425,0.007832133,0.061984062,0.025426447,-0.06689633,-0.012467032,0.039419178,-0.037464153,0.0113133,0.02810407,0.058584936,-0.022064826,0.018238842,0.015505738,0.034274243,0.04785506,0.049832176,-0.016360356,-0.012030149,0.005075741,0.01006434,0.017901352,0.029868027,-0.068610534,-0.0045455717,0.010844657,0.004537364,0.023687474,0.067338735,0.07485351,-0.03160192,0.014970228,0.03128001,-0.011003218,0.07097599,0.019441843,-0.0006061715,0.06566117,-0.00089784106,-0.05107201,0.00061671954,0.030789742,-0.00485162,0.008987189,0.06287863,0.010275566,0.05544845,-0.013809888,-0.017491117,0.043297827,-0.062021997,-0.03886963,-0.00023040554,0.056377392,-0.07122456,0.040093474,-0.062671386,0.063810736,0.05084404,-0.029737547,-0.001654329,-0.0018085861,-0.041903496,-0.016681515,-0.03194824,0.018596143,0.011842204,-0.049129244,-0.0569521,-0.010307617,0.009021989,0.007446816,0.0043939385,-0.035584126,-0.04356561,-0.0011130626,-0.038619258,-0.0252397,0.004612966,0.043905508,0.008651376,0.0254456,0.028904093,-0.038840685,0.04160663,0.012052721,0.0067909006,0.033188403,0.014450441,-0.00590212,-0.029008698,-0.08621355,0.041196775,-0.024647586,-0.057131656,-0.03708759,-0.024299182,-0.0331779,0.0035089026,0.0011097562,-0.056772646,0.01831693,-0.04583385,-0.0062196357,0.037152182,-0.07762034,0.010886636,-0.033145506,-0.0019395429,-0.016158372,0.056700982,0.06275256,-0.024540814,-0.009849619,0.0013684405,-0.020387882,0.008108762,-0.004770328,-0.012111706,-0.064160146,-0.006067953,-0.018252341,-0.01612927,0.04808714,0.04151072,-0.03316638,-0.0006088551,-0.006412519,-0.00571967,0.034762733,0.019019028,0.010723564,-0.037576277,-0.0072011705,-0.037884995,0.03556614,-0.048137005,0.026030248,0.01524504,0.03819175,-0.00056847266,0.036533196,-0.05347861,-0.0054031606,0.020225858,-0.056051794,0.037675116,0.015464644,0.041827943,0.0023703286,-0.006537065,0.032501362,0.027733356,0.0076948563,0.004405771,-0.034477167,0.004458847,0.016123757,-0.003398546,0.020398326,0.08012848,-0.071221076,-0.052627407,0.00067223614,-0.008657049,-0.06281016,-0.004021209,0.025146298,-0.02686463,0.09042591,-0.009178298,-0.018762555,0.04237013,0.055460818,0.04660034,-0.0005694474,-0.019095441,-0.025039505,0.011898269,-0.030869795,-0.070294276,0.04986343,0.07745844,0.038151838,-0.031758495,0.042403314,0.045756042,-0.036815777,0.060621146,0.024046173,-0.05954225,-0.03849787,-0.07987523,0.05939224,0.010302807,0.00396903,0.04032105,0.039128277,-0.019812766,0.023690486,-0.028227046,0.001684799,0.019628461,-0.004990763,0.034406926,0.052131124,0.029476434,0.0079740295,-0.08025962,-0.08417944,-0.05057034,-0.023847446,0.03177483,0.059343237,-0.07824156,-0.0011132337,0.067659,0.016971633,0.009822736,-0.007416545,0.048059594,-0.0024669287,-0.0028754505,0.010799625,-0.0045454875,-0.03251217,0.024305707,0.02350849,0.008318204,0.030882884,-0.0038525749,-0.028612508,0.0019170118,0.025636747,-0.022854127,-0.018728537,-0.006401776,-0.035397645,0.04938321,0.04434036,-0.011613466,-0.10864458,0.03976233,-0.005057819,0.025573898,-0.02382985,-0.0228396,-0.031477757,0.049153876,-0.018084977,0.026664784,-0.023846561,0.015567915,-0.029980022,-0.054806225,-0.019119997,0.054060154,0.029222121,0.015763624,0.023710832,-0.023356162,0.011669265,0.053152345,0.013854151,0.04139059,-0.035398986,0.026108995,-0.00036862353,0.046707015,-0.0183033,-0.018945672,0.013671318,-0.0018379786,-0.027410375,-0.024893345,-0.015090409,-0.014604182,-0.016679015,-0.021119235,-0.0099020945,0.04841242,0.05389564,0.0332229,0.0022459044,-0.02155416,-0.0009364334,-0.020630421,-0.004109113,-0.01066612,-0.038129628,0.004079061,-0.02738556,-0.030849876,-0.019838482,-0.0077775936,0.016856732,-0.028515441,0.0261294,0.051484317,-0.06798834,-0.0042684604,0.026080914,0.008190567,-0.001378103,0.015242536,-0.02676335,0.019489368,0.041682526,-0.050375465,-0.04058834,-0.046799414,0.017986357,-0.01575562,-0.063533485,0.014817841,0.0056958795,0.04034441,-0.020710915,0.0152233355,-0.02943052,-0.0067924955,0.019571008,0.05347322,0.056234017,-0.003892406,0.01646035,0.03870715,-0.011871111,0.008382181,-0.017450355,-0.022461394,-0.0023080804,-0.025879433,-0.04291724,-0.02874343,0.042022992,0.055875145,-0.0019990285,-0.030010972,0.06554387,-0.02156671,-0.10632443,0.038885992,0.007845925,-0.02552104,-0.0017638657,-0.054557394,-0.0106744785,-0.044728786,0.016418975,0.00032125795,-0.044469364,-0.038471773,-0.017003702,0.033385698,-0.0030988648,0.010768075,-0.02657226,0.0083074,0.040611144,0.010933663,-0.004838362,-0.0013351857,0.02436492,0.011442143,-0.06638712,0.043888647,-0.038748275,0.015364342,0.024148509,-0.014897029,-0.013586477,-0.026242262,-0.03988759,-0.047068033,-0.056260854,0.037135325,-0.04836522,-0.06982161,0.035885166,-0.0126581695,-0.023389764,0.023360401,-0.0029753405,0.015835926,0.0032547254,-0.023734381,0.021620661,-0.0011982251,-0.004669208,0.023862228,-0.0006502145,-0.040342525,0.034016542,-0.028121885,-0.032104354,-0.0031207127,-0.05864671,-0.04334005,-0.0034280955,0.047575194,0.0151022915,0.016539082,0.036163308,-0.028577195,-0.026154019,0.045545656,0.0065934835,0.0036331168,0.07994721,-0.013403889,-0.028664118,-0.005911507,0.047356863,0.03414319,-0.037571765,-0.0072880057,0.016881304,0.063201286,0.029770548,-0.049324106,-0.0018845117,-0.020266065,0.017473068,0.009811416,0.033961564,0.07164492,0.03591846,-0.008699853,-0.03475115,0.004220138,0.014483043,0.058467504,0.02415101,0.0726798,-0.0036485428,-0.000897278,0.05847727,0.04052012,-0.008429884,-0.0602381,-0.03502278,-0.0009574706,-0.029530413,-0.009528851,0.041210465,-0.015928544,-0.05795029,-0.027383916,0.0058693946,0.03768027,0.023574932,0.015962735,0.011676153,0.0010704607,-0.03806326,0.046354655,-0.008395648,-0.085200265,0.017760586,-0.021478895,-0.013734963,0.018031728,-0.058998052,-0.018188667,-0.06073746,-0.032052536,-0.0049738493,-0.040411044,0.017878124,0.05954569,-0.00975611,-0.026673408,-0.094857104,0.057405975,-0.045212287,-0.02973105,-0.005787548,0.025607215,-0.013434644,0.002512832,0.012794063,0.008091946,-0.06293734,-0.037954345,0.014542683,0.006157565,0.038019538,0.021174146,0.037535045,-0.031048017,-0.024298253,-0.0015874258,-0.012941284,-0.031208187,-0.045991015,0.0033745351,-0.002767176,0.007916109,-0.014552049,0.029810995,-0.01734313,0.025014976,-0.0064051123,-0.02099222,0.0036367888,0.009770998,0.026079265,-0.04431197,0.05346803,0.005331289,-0.02578285,-0.033382215,0.04134251,0.015022452,-0.011979711,-0.027694292,-0.005217625,-0.046102334,0.05108947,-0.028248612,0.03332419,-0.00038335763,-0.047961682,-8.376166e-05,-0.00242816,-0.022848502,0.03660645,0.024229487,-0.044244166,-0.00048066766,0.028640186,0.023825517,-0.05048609,0.038245007,-0.040671095,0.040561114,-0.039481483,-0.027310329,-0.045822073,-0.041391384,-0.024683751,0.016517872,0.05849232,-0.017700924,0.05382582,0.0001396298,-0.07380733,-0.06259518,0.009769644,0.01193483,-0.011717537,0.078692615,0.005421388,0.028597187,-0.002424298,0.024653215,-0.006077873,-0.03693525,-0.0011860445,0.077859886,-0.07655339,-0.08175156,-0.026783284,0.044023335,-0.0067146085,0.03106184,0.053278524,0.040932626,-0.00067814114,0.013008005,0.00615094,0.02177815,0.027043559,0.03323943,0.0056543085,0.024551183,-0.0675422,-0.057440456,-0.01929405,0.07821388
embedding_6: 0.013891063,-0.012233247,0.0597734,-0.049974024,-0.06540914,-0.082927436,-0.062636875,0.017631698,-0.06945319,-0.031493686,0.058279876,0.035900045,-0.05245799,-0.06646587,0.011996306,-0.015989447,0.01854383,-0.015914598,-0.04161201,-0.0283304,-0.01962158,-0.026377633,-0.052581288,0.026283154,-0.01835949,-0.07086743,0.053264525,0.0048948554,0.010465496,0.0095178215,0.04348325,-0.0073945564,0.022270024,-0.0029324703,0.080858536,-0.04455709,-0.009338726,-0.011866746,0.03448498,-0.019518863,0.06777968,0.018405152,0.021768814,-0.032642305,0.053121462,0.035545804,0.043342017,-0.04001732,0.018332487,-0.0057215383,0.021934107,-0.0431364,0.024859779,-0.046888016,0.016989887,0.048682164,-0.028812785,0.014018804,-0.032634363,0.0074240654,0.021805402,0.018245393,0.02201157,-0.012560984,0.036004618,0.038855538,0.03656036,0.025628105,0.0002614685,0.010347736,-0.049732357,0.013861294,0.028556371,-0.016951928,-0.06658098,0.05812026,0.039233986,0.03847165,-0.019495012,-0.015447503,-0.047596093,0.03804195,-0.051632095,0.03882681,-0.06028703,-0.0046867453,-0.028158035,-0.009267655,0.036551118,0.060232606,0.011770687,-0.01781107,-0.022640053,0.025572333,-0.0127882175,-0.009978383,0.06111838,-0.020573111,-0.03869834,-0.039322685,0.0049389573,0.040243857,-0.007488127,-0.043218102,0.010147647,-0.026014924,0.0014012852,-0.031606734,0.044933323,0.010417827,0.07677608,0.05997993,0.00848022,-0.013222122,0.092966184,-0.056631286,0.018370055,-0.03791027,-0.007821461,0.005019294,0.015272754,0.033583064,-0.0078412695,0.003019687,-0.05081794,0.0071681137,0.069774635,-0.042299498,-0.016084468,0.015121705,-0.00439503,-0.014385772,-0.004610876,-0.043751117,0.04737851,-0.05591487,0.018959517,-0.009220286,0.0003841662,-0.078554064,0.0055107623,0.019728774,0.029593758,-0.05071251,-0.046286557,0.03035833,0.0028088028,0.027979573,0.05991034,0.03679814,0.009318782,0.034164287,-0.009010794,-0.023796676,0.002814681,0.0014855507,-0.004202781,-0.010355635,0.016812772,-0.028986141,0.016615937,-0.024576955,-0.022963144,0.03975995,-0.0872982,-0.013899725,-0.033746712,0.020988813,-0.006823419,-0.02459384,0.04346604,0.014765452,-0.0019052412,0.016833486,0.061835825,-0.011444868,-0.03355928,0.06504887,0.07524082,0.018955544,-0.048756544,0.001927004,0.033312954,0.0440679,-0.048962686,-0.04634102,-0.0029834677,-0.04218742,0.030022798,0.06823261,0.032102685,-0.08611413,-0.029691916,0.06833851,0.025947973,0.0008168267,0.010699709,0.08720464,-0.061141003,0.011290886,0.02906862,0.051871073,0.026246207,0.040492833,-0.023365954,-0.006723893,0.011217183,0.01124004,0.041524094,0.04380896,-0.051146783,0.012414217,0.013288733,0.0014388291,0.0169284,0.045784358,0.07752997,-0.05422983,0.011855431,0.044975046,-0.0050586197,0.014501548,0.027138013,-0.02420916,0.04601365,0.0074152285,-0.07323492,-0.0026665223,0.022454964,0.005105101,0.025130967,0.027839698,-4.908e-05,0.027510377,-0.027622303,-0.03041873,0.034394357,-0.062247902,-0.02916523,0.016206946,0.02946802,-0.06491399,-0.007965091,-0.06983912,0.08142067,0.04317135,0.022315385,-0.0016415466,0.001715075,-0.02240529,-0.029994378,-0.0020353491,0.026243214,0.008206147,-0.06706565,-0.025015596,0.010432561,-0.009883266,0.017527437,0.0031156829,-0.008645371,-0.032114442,-0.020826327,-0.039174087,-0.019035898,-0.007603595,0.024166776,-0.009203804,0.015391791,0.02516087,-0.01408144,0.059180442,0.008139945,0.0202497,0.038743064,0.030167136,-0.04806467,-0.0538461,-0.025638824,0.043783683,-0.011839173,-0.06067204,-0.030007485,-0.021955939,-0.018953493,0.018030738,-0.0037248766,-0.04331204,0.016749632,-6.795373e-05,0.001388288,0.042868048,-0.027799927,0.029628083,-0.047113635,0.022987664,0.014366448,0.049826555,0.09095379,-0.04070243,-0.009439452,0.010397011,-0.044448268,-0.013335894,-0.023841338,0.005771601,-0.06443959,0.009220452,0.0053645666,0.013372272,0.06429914,0.052580215,-0.008826663,0.029869797,-0.013359683,-0.035890844,0.024144258,0.021911254,0.039115287,0.0028162291,0.028402304,-0.03836456,0.034524,-0.030197449,0.058460698,0.029824333,0.0066239857,0.02833521,0.064794704,-0.03775205,0.0017933553,0.03039683,-0.06594751,0.045091778,0.025030144,0.020305892,-0.004746499,0.016790513,0.025341956,0.023139661,0.020328743,0.011855138,0.004353106,0.021699006,-0.011898942,-0.015476966,0.033827294,0.0737051,-0.068278,-0.061538555,0.01199566,-0.010033644,-0.06347353,0.019743197,0.044317465,0.016480858,0.077893056,0.0071695433,-0.032693706,0.05230533,0.061467543,0.018014813,-0.020360924,-0.0389543,-0.00034236105,0.008557226,-0.04793286,-0.07091859,0.031453338,0.052332185,0.037011094,-0.04807445,0.036609188,0.050212663,-0.025364954,0.047318876,0.009732198,-0.0491613,-0.038654566,-0.064664364,0.053284433,0.003544608,0.0067709265,0.04074354,0.08447097,0.02073501,0.032830015,-0.041198194,0.018541444,0.0142085785,0.0009000725,0.0045507853,0.031883515,-0.0029438145,0.015322804,-0.092587866,-0.052977312,-0.041582942,-0.028958987,0.009405203,0.06456171,-0.07592882,0.0071124444,0.034267414,0.04661074,-0.008457131,-0.0072959294,0.049000528,-0.015566616,-0.023771059,-0.006062292,-0.0182689,0.0073375823,0.018897176,0.04701524,0.06417386,0.004782654,0.016121175,0.009737798,0.019606447,-0.004580974,0.018750193,0.037577126,-0.006098367,-0.024840508,0.03426999,0.037642267,0.0011064284,-0.0799394,0.03363883,-0.009169097,0.037059434,-0.00411219,-0.00884715,-0.047154903,0.029535748,-0.04536701,0.022841863,-0.039916154,0.035115194,0.015188643,-0.04404106,0.011575694,0.04506148,0.04840571,0.013826075,-0.020454193,-0.03528241,-0.012219429,0.023166904,0.01603875,0.033396453,0.0015317546,0.011702453,0.033223324,0.046494972,0.012010275,0.019425023,0.013828457,0.0060981303,-0.04758426,-0.0153169865,-0.04359481,-0.00029295814,-0.014009944,-0.03188077,-0.027686633,0.044419583,0.03777499,0.02195656,0.0013070678,-0.0032366582,0.011791127,-0.041573953,0.010243724,-0.010619457,-0.021842103,-0.0059710364,-0.04196313,-0.045491952,-0.033765092,-0.024871157,0.038148515,-0.01876535,0.045938175,0.04379225,-0.054923866,0.005257476,0.038355876,0.008369562,-0.023212792,0.01314101,0.0022020445,0.024108477,0.04350559,-0.042425524,-0.06341495,-0.043400556,0.027775249,-0.005019101,-0.08480316,0.0018076494,-0.03518592,0.056629937,-0.026475577,0.012700691,-0.023016898,-0.003864993,-0.005089544,0.02472,0.09581181,-0.024935523,-0.0037850935,0.064255476,-0.012765908,-0.00738406,-0.015647657,-0.045243695,0.040379222,-0.038651314,-0.013113594,-0.0051744524,0.06927736,0.05157426,-0.03073707,-0.019337393,0.041958064,0.0014705688,-0.052812178,0.020673433,0.00010852996,-0.0009079199,0.049297657,-0.051125396,-0.01691889,-0.03852928,0.006070241,-0.04614053,-0.043233834,-0.031371165,0.0076655783,0.045243125,0.0056539164,0.020980017,-0.0248827,0.0050693373,-0.00020404696,-0.024685198,-0.02406255,0.010938091,0.0035995375,0.017340463,-0.061795793,0.059822,-0.039938007,-0.0024995394,0.031115837,-0.013526313,0.005363073,-0.004948969,-0.058305174,-0.03380821,-0.041836295,0.031309284,-0.056180418,-0.08121453,0.04522978,-0.016413523,-0.024836104,0.036004703,0.025735207,0.045125213,0.0025162636,0.0006032666,0.06775599,-0.017674614,-0.0070188874,0.022479532,-0.030842118,0.0076934556,0.040554076,-0.059252955,-0.022720013,0.009484524,-0.03661774,-0.044351686,-0.005167182,0.030928494,-0.046417233,0.045823976,-0.002713645,-0.028795261,-0.028934168,-0.028779577,0.012906842,-0.005781283,0.051328313,-0.027358854,-0.022769038,-0.005331989,0.045379158,0.050220296,-0.04222646,0.003684653,0.040131416,0.04151709,0.020753894,-0.027520742,-0.009301526,-0.015776351,0.009985484,0.0146412905,0.044430155,0.052702557,0.006353692,0.03710312,-0.05674549,0.012113843,0.009832911,0.07078456,-0.0059348675,0.042033114,0.011473349,-0.012361774,0.050752636,0.016693357,-0.0007938937,-0.078225054,-0.028182821,-0.02546971,-0.047675714,-0.012907187,0.038025767,-0.009320454,-0.054968294,-0.0005288417,0.011335513,0.01474066,0.016024692,0.01796495,0.0011473461,-0.012254184,-0.045663733,0.032372497,-0.024594747,-0.07092591,0.037161924,-0.05402141,-0.026767734,0.051173285,-0.0432034,-0.012339899,-0.075682096,-0.056305442,-0.018587628,-0.024583526,-0.01779906,0.043993726,-0.025038343,-0.027573353,-0.035344798,0.082459405,-0.023583388,-0.0070410795,-0.025711207,0.022943407,-0.0107129095,-0.0018630647,0.027597805,-0.021184627,-0.04766435,-0.037966255,0.025319103,0.027989058,0.030988688,0.0069898036,0.041290354,-0.04272958,-0.026646871,-0.009758437,0.0053177034,-0.03169211,-0.029579476,0.011336954,-0.00042466982,-0.015226436,-0.0045817923,0.050176647,-0.021942629,0.031087236,-0.019688051,-0.016510626,0.011339817,0.0048394715,0.014027527,-0.04645701,0.07088898,0.035496786,-0.03804386,-0.043357506,0.013946182,-0.0051706075,0.010614437,-0.002638977,-0.0064269006,-0.048151843,0.043360427,-0.016227221,0.022085467,-0.012211066,-0.013790777,0.0039797435,0.006152924,0.0074669598,0.053325273,0.02461139,-0.054947816,-0.010513985,0.0112680765,0.085922614,-0.0366337,0.026787248,-0.006227169,0.05505264,-0.05121674,-0.02948855,0.009787579,-0.08020953,0.0062335613,-0.01848897,0.07376159,-0.011381083,0.017358711,-0.026020266,-0.082751565,-0.026304735,-0.00053723325,0.032203265,0.018995855,0.07410941,-0.0028964195,0.021276748,0.008891886,-0.0029327124,0.022443078,-0.018372802,0.025421135,0.06039227,-0.102820545,-0.058920573,-0.055558395,0.036588743,-0.00191889,0.03585693,0.044103395,0.015691856,-0.020982737,0.0046227328,0.045487512,0.028070178,-0.0050136736,0.059222586,-0.017280115,-0.0043745693,-0.031442046,-0.044455886,-0.023276353,0.081746444
embedding_7: 0.00880016,-0.025643025,0.034157116,-0.04011955,-0.055040605,-0.05834334,-0.046657737,-0.008357309,-0.050333343,-0.0017367828,0.050174456,0.039690644,-0.038161155,-0.04028961,0.0034128649,0.013243492,0.028700821,-0.037126776,-0.03980035,-0.012819645,-0.016749175,-0.010691704,-0.034295067,0.015265595,-0.02380382,-0.057065643,0.06308672,0.017069148,0.010068071,0.02080363,0.0636347,-0.024374017,-0.0036773968,-0.0028893554,0.059266333,-0.02440192,-0.032492813,-0.0208437,0.020159246,-0.0018413069,0.048675977,0.03225481,0.04242684,-0.028895743,0.080171734,0.019415364,0.087517954,-0.013957804,0.020015767,0.007989243,0.0061066127,-0.024814669,-0.006087346,-0.042949572,0.031916447,0.03565789,-0.023525534,0.020280035,-0.04457371,0.026692709,0.03629847,0.016504854,-0.0068030595,0.0052238572,0.04702029,0.04148342,0.054785017,0.048862252,0.012181081,0.03432578,0.0021819486,0.0009082422,0.0011385303,0.008871093,-0.06907218,0.06292574,0.038659442,0.039415527,0.010412773,0.012197996,-0.038823,0.030082228,-0.07078016,0.06161188,-0.0526684,-0.016362155,-0.025279699,0.0008290434,0.039391384,0.056719147,0.013338341,-0.032929033,-0.010565038,0.0068526794,-0.020127963,-0.012197904,0.055096228,-0.0074413265,-0.045127742,-0.05013674,0.0021821873,0.04068334,-0.02453301,-0.014786828,0.035700105,-0.031608183,0.011231363,-0.021830173,0.030949824,-0.0012829769,0.061386712,0.065535665,0.016608415,-0.0028103224,0.098950796,-0.07187884,-0.0009912588,-0.041883208,-0.023946432,0.037353083,0.0047283517,0.043085866,-0.0023380828,-0.00941866,-0.03644449,0.01961445,0.06929432,-0.009756171,0.0001437775,0.04124626,0.018388437,-0.01476657,0.0024276362,-0.029501304,0.016444765,-0.094136395,0.031139225,-0.0006251324,-0.013508865,-0.12706041,0.025224531,0.006200315,0.047498066,-0.019481005,-0.028688034,0.0070252456,-0.019965155,0.0076634865,0.061085116,0.034832083,0.019487338,0.019272335,-0.008687651,-0.032608524,0.028863518,0.022501983,-0.018102905,-0.009127826,0.012887414,-0.063858286,0.014821678,-0.045982886,-0.021140782,0.04923467,-0.049577195,-0.014490098,-0.007312855,0.017223727,0.0076076095,-0.040799398,0.07405301,0.014719506,0.0035743518,0.021501644,0.038513042,0.009567464,-0.048742857,0.0494583,0.07502472,0.027796114,-0.017489657,-0.014323066,0.019705847,0.02924228,-0.040539008,-0.048352297,-0.0010869852,-0.00685476,0.020481937,0.059403464,0.046391528,-0.08462519,-0.00786791,0.05851487,0.01656337,0.006475887,0.021001229,0.0793014,-0.038758326,0.018126264,0.020310672,0.0513363,0.035706557,0.0047769584,-0.020375589,-0.0049705314,0.004295453,0.016149994,0.04599786,0.014363541,-0.07624568,0.014675567,0.017736591,-0.021536378,-0.005148004,0.05085782,0.07436985,-0.029343288,-0.0056012776,0.048792887,-0.04585495,0.044945635,0.015277712,0.0038804233,0.04470983,-0.004796187,-0.075425655,-0.00063257676,0.05439445,-0.014674135,0.014240079,0.04158272,0.01717884,0.03719541,-0.014742997,-0.053306714,0.052014265,-0.066854924,-0.06237982,-0.021372199,0.054288466,-0.020534461,0.0033945167,-0.06268884,0.06594226,0.023067886,0.02029909,-0.030681573,0.019892035,-0.029615734,0.01090523,1.49111875e-05,0.03164705,0.0039770165,-0.060224045,-0.028005946,-0.011946259,0.003120923,0.0019165624,-0.016864706,-0.023672981,-0.047328673,-0.012505163,-0.03624008,-0.028062249,0.007220702,0.03464235,-0.031682037,0.028417796,0.012706868,-0.044663843,0.032428723,0.011038195,0.006498815,0.03696642,0.0066363276,-0.044033885,-0.020955477,-0.042308494,0.058702685,-0.018737089,-0.051902443,-0.019313203,-0.026590189,-0.016487379,-0.014949775,-0.007304014,-0.05469162,0.031353187,-0.023329541,-0.0077140317,0.048530012,-0.05335901,0.011376592,-0.046072505,0.009048299,0.009555818,0.03666533,0.081083395,-0.045845322,-0.021045122,-0.008592109,-0.0010352143,-0.024747362,-0.013570016,-0.027467111,-0.042988908,0.026728444,-0.0314091,-0.018231075,0.048301697,0.061296374,-0.006297275,0.028630557,0.0024124787,-0.030456578,0.032861713,0.032072175,0.038321648,-0.022590175,-0.016231108,-0.026357962,0.014069698,-0.051268246,0.035667356,0.010222654,0.0062487465,0.025108043,0.04807035,-0.02359275,-0.0027794058,0.03986128,-0.071888305,0.037397187,0.0077575874,0.03629809,-0.010169017,0.030635925,0.017008705,-0.008451362,-0.0018610784,0.0112816,-0.007729786,0.0067836717,-0.03893566,-0.039527677,0.031146307,0.07375307,-0.0863471,-0.059785295,-0.021656718,0.0048788562,-0.056231037,0.010419407,0.04599999,-0.008911898,0.06031375,0.0063730567,-0.021017602,0.060220294,0.05739214,0.038229246,-0.00104255,-0.03330455,-0.023330046,0.00074897124,-0.044637237,-0.070573956,0.052931763,0.06282983,0.050580896,-0.03999597,0.042395897,0.0497197,-0.009794364,0.028958855,0.011684697,-0.06685069,-0.04386856,-0.06725756,0.054364707,-0.0016464519,0.0049540442,0.052155867,0.058717225,0.0017958623,0.07583549,-0.03656664,-0.024662293,0.03815459,-0.010933172,0.02706617,0.059335317,0.012211532,0.041331235,-0.07034147,-0.059650533,-0.030002037,-0.041305944,0.009017273,0.07594372,-0.07253844,0.011592101,0.062124766,0.02892578,0.0028511104,-0.021377431,0.036113225,-0.005997895,0.0022798553,-0.0030932408,-0.024106089,-0.007818542,0.0028804205,0.022827256,0.039581645,0.03542171,0.013988915,-0.003013667,0.032864645,0.0053926394,0.0041466947,0.015101835,0.014961736,-0.056244563,0.019230695,0.04662553,-0.0043228865,-0.09464568,0.042852335,-0.012188701,0.028234676,0.010754248,-0.0033071707,-0.025374,0.019165082,-0.04158243,0.0017110433,-0.033193815,0.012585032,0.0013696994,0.0024140389,0.012341054,0.04140917,0.061334543,0.001775255,0.00022146256,-0.0051954635,-0.0067451918,0.024527585,-0.008859573,0.046138037,-0.018007707,0.0051301136,0.0010231936,0.047382694,-0.02652361,-0.010493662,-0.005058137,-0.0059829825,-0.074105814,-0.015186666,-0.020733433,0.013584953,-0.022992844,-0.042362574,-0.004237532,0.056909382,0.0398263,0.028681863,-0.0048543573,-0.0010918756,0.0057825176,-0.020748366,0.013986232,-0.031169413,-0.06409298,-0.004499627,-0.013474411,-0.06076174,0.0014864791,-0.013547803,0.043065313,-0.012757602,0.026962847,0.03574674,-0.052199505,0.011771675,0.038162198,-0.008097517,-0.0026157917,0.03180374,0.0036592332,0.013313342,0.021912782,-0.043060586,-0.080733724,-0.061424673,0.03410131,-0.007617237,-0.085980296,0.008325732,-0.015714232,0.05614342,0.011335977,0.023182223,-0.04361028,0.004069949,-0.0025327806,0.047302224,0.09475308,-0.0028242546,0.006492183,0.035571963,0.0036457693,-0.014856732,-0.03861221,-0.049011573,0.032510873,-0.05473077,-0.030627415,-0.026564041,0.053974032,0.047472507,-0.04121322,-0.007674284,0.03356382,-0.009850222,-0.09179423,0.022917842,0.008123625,0.015411469,0.025024999,-0.052078407,-0.008491139,-0.01411779,0.01222883,-0.029896127,-0.060484696,-0.02176754,-0.0031032357,0.014586275,0.003797391,0.014238596,-0.038719166,0.00015613767,0.030010626,-0.027569136,0.00504541,0.014715738,0.02830016,0.0032467574,-0.052245677,0.058265492,-0.03382635,0.016666824,0.008112153,-0.00941306,-0.010299541,-0.024250979,-0.041796915,-0.036747344,-0.07249408,0.044375997,-0.056602262,-0.08335572,0.04108134,-0.03824431,-0.022832572,0.04005742,0.026621208,0.036955655,0.0248278,-0.03297547,0.049635388,-0.013658585,0.0021850963,0.033129636,0.0018890687,0.0074079228,0.03846575,-0.035385106,-0.0410848,-0.012060287,-0.03178029,-0.038921583,-0.01578646,0.03699703,-0.04685788,0.0047097383,0.008964948,-0.043655045,-0.02714661,0.0027913575,-0.0021359504,-0.011376376,0.05688552,-0.017996464,-0.027073827,-0.026394285,0.032340705,0.03463392,-0.030952215,0.035679046,0.032585848,0.072700456,0.020766411,-0.025488844,0.009380067,-0.03256532,0.03957601,0.0095492825,0.021942725,0.07858078,0.042697817,0.0063128513,-0.06457238,0.01701386,0.0055585667,0.0418985,-0.0087095965,0.032920364,0.017710002,-0.004066508,0.021820016,0.01591689,-0.017172042,-0.070835575,-0.008449835,-0.005295692,-0.044983074,-0.02784556,0.022406619,-0.0029174949,-0.034694277,0.0009215427,-0.016893117,0.02299999,0.02215675,0.01996795,0.012424113,-0.04327873,-0.038703695,0.043980297,-0.0022283264,-0.06082167,0.050613124,-0.034616265,-0.025507046,0.022658719,-0.056382824,-0.033957273,-0.065064274,-0.041338474,-0.005073009,-0.04157195,0.00037248383,0.048368078,-0.010859187,-0.056647345,-0.07756744,0.08225071,-0.037259474,0.0077089746,-0.011451048,0.004024324,-0.034296483,-0.0043027187,0.02421139,-0.014581088,-0.038287565,-0.044692475,0.009838486,0.016741399,0.04051991,-0.0061655142,0.042524558,-0.021105133,-0.030277373,-0.006864747,0.0032210732,-0.028171126,-0.036348537,-0.0009167691,-0.004719344,-0.0014225595,-0.015478225,0.04941875,-0.03710186,0.013403249,-0.008128316,0.011580483,0.011295917,-0.00096144987,0.020389032,-0.052699704,0.03317127,0.03792938,-0.028143426,-0.05487073,0.030809445,0.0076846923,0.041769195,-0.026454205,0.016315566,-0.05444539,0.0209295,-0.016406806,0.012793372,2.5655623e-05,-0.050757516,0.0022239585,0.0012635686,-0.0010872474,0.05551186,0.03285074,-0.046143815,-0.025846222,0.013706898,0.054533813,-0.06025067,0.046397775,-0.046086263,0.043955624,-0.043939255,-0.049772635,0.00850779,-0.06540878,-0.018908758,-0.004811725,0.08061375,-0.0350578,0.024974573,-0.027934177,-0.062662564,-0.0379713,-0.0019639942,0.022352524,0.006139996,0.04582555,-0.00034972676,0.01981465,0.018747065,0.02666282,0.004406864,-0.044874325,0.021882884,0.06426863,-0.086629555,-0.079739034,-0.05355756,0.043790374,-0.007179556,0.05019998,0.026600229,0.011433639,-0.0023977573,0.014941522,0.032451045,0.046253856,0.016857328,0.02748257,0.009210667,0.0059997677,-0.03946875,-0.029916802,-0.012208622,0.05087562
embedding_8: -0.017765678,-0.051617928,0.02571163,-0.069843136,-0.05625246,-0.056611516,-0.063862026,-0.008236275,-0.042735714,0.00898062,0.030860286,0.03988148,-0.06804385,-0.07129676,0.012238628,0.018824581,0.038293578,-0.054111972,-0.060026605,-0.0035598006,-0.00607199,0.003239242,-0.038578216,0.044777073,-0.03547307,-0.08752177,0.039266493,0.0067329486,-0.018767467,0.034052473,0.049977988,-0.058661226,-0.008736158,-0.026636574,0.06984747,-0.029009197,-0.021749314,-0.01894779,0.012262413,0.011927354,0.0465422,0.017912071,0.051762223,-0.010042411,0.05110271,0.04687561,0.060974583,-0.011476409,0.053570434,0.03101919,-0.01611595,-0.009352369,0.008411539,-0.03263678,0.051202044,0.03528406,0.0018020824,0.012969577,-0.051170204,0.031114563,0.011817886,0.05366758,0.008704929,0.015223882,0.031661585,0.0030890629,0.04489559,0.04991878,-0.017825117,0.015397361,0.002957452,0.007989286,0.03136902,-0.022788344,-0.06576132,0.029493958,0.025836838,0.041833002,0.010679368,0.055860024,-0.055469785,0.025469214,-0.0483882,0.051105406,-0.052761436,-0.011991557,-0.0045414204,-0.006713867,0.036496814,0.06048325,0.0062005636,-0.010229715,-0.0034926902,0.02509375,-0.011251131,-0.02088555,0.047577735,-0.038072065,-0.06530841,-0.046535097,0.0007648615,0.044625785,-0.051378056,-0.019776417,0.014123656,-0.04699508,0.031093543,-0.038332816,0.00092828594,0.004399278,0.06608772,0.08121056,0.0059275697,0.0069782003,0.1035545,-0.039179645,-0.0151000535,-0.04862977,-0.055476815,0.03354403,0.023857683,0.06637744,-0.00026014177,0.00045347493,-0.01657181,0.0061389785,0.07530692,-0.0010816942,0.00567179,0.0012940904,0.01593043,-0.037871525,0.029264191,-0.036778968,0.040154755,-0.103714004,0.028130563,0.007099408,-0.039918665,-0.09397078,-0.0021977623,0.029598216,0.037162025,-0.0032608064,-0.014388753,-0.0066500367,-0.01911836,-0.006762129,0.05143357,0.022475056,0.038539976,0.012807839,-0.012319594,-0.01927855,0.011164999,0.008087642,-0.030940302,-0.0316644,0.030803854,-0.048488207,0.0209333,-0.020755112,-0.023000378,0.029506348,-0.050621532,0.000982574,-0.004230271,0.020999392,-0.0027972334,-0.036674935,0.088301465,0.008856405,0.031210968,0.013031756,0.039411437,-0.004629765,-0.037535008,0.048022185,0.068034,0.034789473,-0.011713718,-0.0034542521,0.008049591,0.035508394,0.008594065,-0.04495788,0.0012643314,-0.010660004,0.01617011,0.06893833,0.004409829,-0.053106073,-0.030754076,0.019516625,-0.02662634,0.023200264,0.033745147,0.065304756,-0.020155663,0.014569033,0.013788611,0.07554077,0.048247594,0.014964138,-0.04390854,-0.006098721,0.007859346,0.010170407,0.028310845,0.024995416,-0.081550345,0.0042943377,-0.010443179,-0.010970354,0.022877745,0.03464065,0.041938554,-0.021089198,-0.035445474,0.032315124,-0.040637113,0.039124534,0.025119608,0.004381005,0.045595556,0.004731392,-0.05618558,0.0014550177,0.053427655,-0.017952142,0.018595029,0.07308077,0.015817268,0.041644663,-0.017540378,-0.0251694,0.022333909,-0.06697303,-0.03123453,5.4204786e-05,0.0519215,-0.03236126,0.022154603,-0.05964842,0.054726023,0.009725188,-0.015032536,-0.02729751,-0.018443666,-0.031426426,0.007859414,0.006674978,0.022441374,0.0047085476,-0.029861584,-0.03769814,0.0020835912,-0.003843284,-0.003214772,0.017386714,-0.0017372823,-0.045481212,-0.033645816,-0.019653361,-0.04209026,0.00080589694,0.056622583,-0.029575087,0.009080711,0.028123822,-0.034929745,0.05029335,-0.00048165745,-0.004815182,0.052628122,-0.0008845632,-0.002125725,-0.017927863,-0.089556165,0.03451565,-0.045869533,-0.06209019,-0.031170255,-0.018857157,-0.029387074,0.0031652316,0.008947305,-0.050740257,0.030586706,-0.05282878,-0.0061933547,0.03786653,-0.05426532,0.005176513,-0.025927467,-0.021031037,-0.0139454175,0.028545568,0.062495098,-0.022242634,-0.032867428,-0.013633606,0.013365167,-0.019246735,0.026384357,0.002259836,-0.038269296,0.037211515,-0.032240987,-0.02490123,0.08291298,0.047153577,-0.027349016,0.0072741346,-0.007824807,-0.0048575806,0.06905042,0.01422043,0.006590133,-0.02594418,0.010492557,-0.031616732,0.006367673,-0.035391297,0.047935434,-0.0009383355,0.019319855,0.013080111,0.04316498,-0.06556096,0.009132439,0.006177492,-0.090283826,0.019723225,0.02495791,0.029672803,-0.008991264,0.00033972767,0.049614295,0.002717835,0.029672692,0.003804192,-0.025979355,0.008640423,-0.02193544,-0.026680633,0.043380417,0.056288883,-0.053827155,-0.05286244,0.003340951,0.00654193,-0.04551155,0.024417575,0.036490932,-0.026514918,0.06567532,0.010827124,-0.011643296,0.040071458,0.058746405,0.011423501,0.013475546,-0.028783867,-0.02174345,0.016901566,-0.023455257,-0.0765911,0.047603045,0.08506806,0.069906846,-0.025319844,0.02853545,0.03463512,-0.0063285003,0.058630373,0.021133488,-0.043570515,-0.048600588,-0.07102099,0.06417133,-0.009305096,0.019805709,0.0318811,0.0435176,-0.0069339257,0.06928826,-0.051127568,-0.019417074,0.012610319,0.008226702,0.025360642,0.061138857,-0.0055677756,-0.0109774135,-0.0642282,-0.08036806,-0.045608122,-0.07759721,0.019342696,0.060794786,-0.07890751,-0.015002098,0.028911883,0.04020628,0.016662521,-0.021564517,0.061669625,0.0114503885,0.022087408,0.019105313,-0.0008707412,-3.6606398e-05,0.027900107,0.01068629,0.01922313,0.04428632,0.0078119007,0.0050005373,0.01917043,0.026157953,-0.0012451169,-0.0050243116,0.020573271,-0.034860715,0.0222576,0.033669047,-0.018580142,-0.09330888,0.025446177,0.0038860901,0.032270115,-0.0074150264,-0.029896596,-0.010087995,0.002606866,-0.028916756,0.030244332,-0.02008137,0.028639255,-0.018827008,-0.008479434,0.009318817,0.05591244,0.064216815,-0.017367875,0.012976572,-0.00485235,0.0061741425,0.03397707,0.024900254,0.030309571,-0.01827608,0.017927174,0.007893556,0.065524384,-0.008813241,-0.0123985745,0.014999299,0.0024043845,-0.055869345,-0.035132978,-0.024356563,-0.026419364,0.0013171082,-0.02208524,-0.0030358722,0.06727728,0.050980892,0.030167477,0.012110173,-0.0032876106,0.015141782,-0.04927102,0.013484624,-0.018988492,-0.08809443,-0.00027319402,-0.022187956,-0.074604414,-0.027517864,-0.0024044972,0.013098184,-0.04305533,0.038659118,0.041032147,-0.062154505,-0.00866861,0.015592952,0.0036262167,-0.0022648799,0.014324411,-0.029523091,0.0028002965,0.020280119,-0.045133542,-0.06253068,-0.049153436,0.013834384,-0.041138455,-0.07473579,0.015499878,-0.021081084,0.059546273,-0.01708544,0.028399723,-0.026974846,0.03148046,-0.02527367,0.031971566,0.0559663,0.00014730447,0.014270659,0.06454185,-4.710581e-05,0.0042265393,-0.029286992,-0.021993892,-0.0020993927,-0.01862531,-0.010574182,-0.03583296,0.035858132,0.027088532,-0.018330965,-0.044674244,0.04932283,-0.04123253,-0.12609161,0.035143834,-0.0058292383,-0.0009942289,0.008234443,-0.04926136,-0.012792348,-0.02493902,-0.003482688,0.0039342265,-0.05035655,-0.015066198,-0.011618755,0.05657919,-0.0058206846,-0.016449794,-0.042644504,-0.0006004348,0.020938165,0.007599222,-0.0019023807,-0.01287276,0.012101957,-0.010451257,-0.05325699,0.05136678,-0.023957694,0.022088785,0.00059454533,-0.00034626672,-0.015225262,-0.0388709,-0.026903678,-0.05886146,-0.054338068,0.03959077,-0.048587527,-0.04456884,0.025943587,-0.030301593,-0.042360023,0.0303327,-0.004424573,0.027807448,0.0105548315,-0.042329844,0.040445182,-0.019724868,-0.0038155406,0.004071962,0.008591176,0.011059607,0.033903386,-0.0320945,-0.038980987,-0.0050735413,-0.054874774,-0.01957637,-0.023778765,0.02982285,-0.008668608,-0.006175759,0.030308006,-0.012192698,-0.0112100765,0.04905266,-0.018601863,-0.00994085,0.06719203,0.004425908,-0.027482033,-0.02342683,0.070725136,0.037826877,-0.03361303,0.0047609387,0.02964405,0.056809206,0.005024422,-0.01255357,0.015157381,0.007633896,0.029144919,0.0011048757,0.01606121,0.07372978,0.050236747,0.016884636,-0.04805975,-0.016724592,0.015482945,0.03501666,-0.0024681168,0.04355295,0.013128714,0.0051954538,0.06008538,0.040130213,-0.005426148,-0.060255297,-0.038220484,-0.0060344595,-0.03314508,-0.004127097,0.036535405,0.0009822455,-0.057383623,-0.0019232049,-0.021520661,0.036866628,0.02169033,0.0056689936,0.02878617,-0.028022604,-0.05178273,0.01610118,-0.014152959,-0.05435867,0.042253718,-0.03005899,0.0007947219,0.0060291826,-0.07832465,-0.033735584,-0.06082806,-0.027418435,0.018020786,-0.06491887,0.024514679,0.031495225,0.0049755597,-0.06375956,-0.0678172,0.0925067,-0.026164416,0.01984056,0.023393715,0.005080735,-0.03263988,0.015570593,-0.014749662,-0.003700848,-0.028118009,-0.019112844,0.029615285,0.0058307615,0.022952333,-0.0021536632,0.047549948,-0.036390923,0.0010388969,0.003104717,-0.020467473,-0.036246177,-0.032684214,0.018661475,0.020093838,0.0068870406,0.009744962,0.04130522,-0.046693187,0.03561139,-0.030162044,-0.008075396,0.019034106,0.020241786,0.026703587,-0.04505203,0.04542013,0.0059933187,-0.018804353,-0.04142831,0.014451311,0.018072782,0.02025809,-0.0081461435,-0.015120114,-0.028549563,0.044861563,0.0004502886,0.03764937,-0.010991793,-0.05245752,0.0087171085,0.009596303,-0.002769967,0.046365846,0.054206785,-0.029621813,-0.013749511,0.007331674,0.046772476,-0.03237985,0.031907316,-0.022942513,0.025097875,-0.043888826,-0.055192653,-0.011874304,-0.0727752,-0.042482503,0.005078265,0.0797258,-0.007589574,0.023551695,-0.039142597,-0.06572648,-0.06844625,0.012091526,0.007600182,-0.022454523,0.04175579,0.00028989185,0.018585835,0.025053006,0.02330923,0.007619395,-0.0202864,0.015305252,0.05868771,-0.10284807,-0.07531018,-0.028240185,0.026664505,-0.019198097,0.02496902,0.05194642,0.04392925,0.011530007,0.024889963,0.009613846,0.039324313,0.028703077,0.038296852,0.008098325,0.02279661,-0.060825177,-0.065691665,-0.012844876,0.06661355
embedding_9: 0.0038141592,-0.015070439,0.008093611,-0.069453776,-0.06397289,-0.05316325,-0.055799183,0.0039012465,-0.045532554,-0.0021686745,0.042034503,0.029416181,-0.040786214,-0.072072305,-0.0022927679,0.041223485,0.027991505,-0.040685974,-0.02478005,0.011534356,-0.012468015,0.0005735301,-0.040727463,0.03686045,-0.05660373,-0.09523754,-0.004843096,0.032097958,-0.015061206,0.04480887,0.052135445,-0.05652296,0.009274203,-0.027528718,0.07214403,-0.029366972,-0.014896023,-0.006606118,0.028268127,-0.031515684,0.012300895,0.035822578,0.014009204,-0.006608227,0.060770344,0.03366429,0.071685664,-0.024311833,0.065536015,0.027754111,-0.003813739,-0.013712067,0.017092686,-0.025486343,0.02573718,0.018095572,-0.004999495,0.013810997,-0.046574917,0.009703877,0.032952826,0.035687383,0.02338295,-0.0024365236,0.024236914,0.0112953205,0.04037092,0.060179368,-0.02387884,0.01387552,0.0037154704,0.0065830145,0.011089722,0.007065177,-0.033221945,0.030312575,0.028709052,0.052368067,-0.006102977,0.021350376,-0.047315,0.010831319,-0.061766885,0.067837745,-0.03726566,-0.009145061,0.010819756,-0.0019487066,0.037986778,0.05342374,-0.034875117,-0.034154862,-0.003209848,0.018570619,-0.022544643,-0.0021856853,0.037613507,-0.037110787,-0.06535251,-0.042243,-0.0064874073,0.038420815,-0.034313053,-0.039885417,0.0001394716,-0.028524363,0.020371541,-0.011267014,0.008533388,-0.021947213,0.071139365,0.07925987,0.040845368,0.00701896,0.089707136,-0.025075994,-0.0039368016,-0.034235355,-0.04703078,0.023720251,0.016086807,0.043307807,0.020112196,0.014944979,-0.0044795964,0.017542042,0.049668826,-0.009975838,-0.0072785206,-0.015267264,0.034693576,-0.047580563,0.041101992,-0.02903567,0.061232105,-0.091536745,0.01803365,0.017723782,-0.02142852,-0.08732439,-0.00045550428,0.010439399,0.011849995,0.011332742,-0.023952074,-0.015030705,-0.019561935,0.0055309143,0.02605744,0.021481236,0.052645333,0.028859403,0.01159499,-0.024278298,-0.0060722455,0.017420419,-0.047100782,-0.030505365,0.013084311,-0.040529758,0.039886534,-0.01883158,-0.03125719,0.034872044,-0.04410593,0.021005528,-0.01390276,0.01803567,-0.00086961896,-0.024448505,0.119820364,-0.008839127,0.022279095,0.0036958614,0.029532986,-0.011536495,-0.04883935,0.035449658,0.06556682,0.03358494,0.0069304495,-0.017360177,0.006720805,0.039281454,0.0019046064,-0.01737434,-0.00614807,-0.012663694,-0.008736566,0.064182825,0.025570579,-0.08185913,-0.021187518,0.01471788,-0.0022955018,0.0070454283,0.015827222,0.0630577,-0.0153981745,0.024296533,0.004496206,0.07460231,0.028707873,0.0052634105,-0.059584625,0.0060296278,-0.0026545469,0.024262056,0.035790432,0.021047024,-0.100185096,0.006355863,-0.012815503,-0.014734923,0.0010396112,0.021887714,0.039973747,-0.021768734,-0.032555386,0.03631294,-0.012019083,0.015044368,0.04750768,-0.00208254,0.04099257,-0.029492745,-0.04990167,-0.0058311075,0.05569166,-0.026354495,0.0051783733,0.06754207,0.023242222,0.026523136,-0.010201183,-0.041440513,0.032019157,-0.07270351,-0.043061543,-0.023718676,0.067928985,-0.017677968,0.008770953,-0.056534044,0.049442884,0.03975985,-0.023816137,-0.023747701,-0.0033269688,-0.04472363,0.00817653,-0.0072670705,0.02781955,-0.015871588,-0.034218315,-0.019496305,-0.01893755,-0.009139662,-0.0030258438,0.039332684,0.00097415707,-0.0543693,-0.029351154,-0.030976282,-0.018773071,0.003432245,0.04512582,-0.011922474,0.053078074,0.015640445,-0.049686324,0.03954405,0.018949771,-0.009076729,0.04481497,-0.002140873,-0.0003670936,-0.055397887,-0.08386223,0.036882974,-0.053651698,-0.054013453,-0.025694106,-0.02619709,-0.026050782,-0.0009250089,-0.015002935,-0.06169319,0.03474421,-0.03468428,0.020373762,0.04069886,-0.06429745,-0.020593315,-0.050412685,-0.02158591,-0.01564752,0.023460522,0.055935267,-0.034038562,-0.027242268,0.023966344,0.009307141,-0.004836234,0.0019157992,0.0070173503,-0.029634122,0.019606719,-0.03951261,-0.023419714,0.05899469,0.061173376,-0.022948505,0.025943965,-0.031328082,-0.011013409,0.07676497,0.031778686,0.059249118,-0.033106413,-0.0018455054,-0.02124005,0.014000676,-0.025194425,0.035982195,0.022356091,0.015380829,0.023976736,0.039947268,-0.055527136,0.008067739,0.022476457,-0.07434682,0.015551541,0.033814665,0.053252254,-0.029841961,0.0051773805,-0.0039740335,-0.011617589,0.027949534,-0.010366118,-0.019820087,0.0016934574,-0.033057872,-0.04282562,0.050546028,0.07198591,-0.06626046,-0.056850117,-0.025101,0.02120682,-0.017279094,0.007952899,0.053474,-0.021483805,0.0632317,0.017563974,0.019147886,0.023605654,0.04355151,0.02390423,0.027513187,-0.01521514,-0.01918933,0.0012514808,-0.023297457,-0.06533674,0.0608761,0.09985615,0.054446917,-0.027946707,0.032341395,-0.007644591,-0.029980512,0.053612396,0.024394764,-0.044225622,-0.06986517,-0.06588942,0.042484876,-0.032009713,0.024970464,0.03715009,0.03287641,-0.0049029705,0.04846728,-0.06103615,-0.01625551,0.009092612,-0.013251164,0.021967242,0.053679835,0.004711076,-0.0064775026,-0.06640541,-0.037112113,-0.04493675,-0.022002446,0.020984655,0.07147706,-0.05212512,-0.005685484,0.045986425,0.027716048,0.037491586,-0.02939454,0.06658015,-0.013398873,0.036922455,0.019291162,-0.0044523394,0.015242788,0.03352528,0.033338014,0.016531127,0.026108079,-0.010461285,0.016953811,0.013926945,0.029711997,0.00027254567,-0.0012074123,0.018127102,-0.051529333,0.01866908,0.03698032,-0.006071363,-0.11100969,0.033473723,0.0029829822,0.033039466,-0.013417664,-0.0013394797,-0.017587973,0.02363146,-0.043292534,0.039153624,-0.040729545,0.01793041,-0.025631953,-0.033233542,0.007400033,0.08300801,0.06887984,-0.0022202735,-0.021277891,-0.021217667,-0.005966054,0.054009665,0.019369466,0.033716306,-0.03231198,-0.001827816,0.0077126753,0.054263666,0.0010480142,-0.0064618015,0.010459618,-0.006129854,-0.0510439,-0.02896358,-0.03173938,-0.025029896,-0.014676212,-0.014333698,0.007565317,0.05168246,0.044870626,-0.0017643315,-0.0020409646,-0.0063462504,-0.006856521,-0.028417194,0.0065209926,-0.030470865,-0.08693274,-0.00019391498,-0.0074027856,-0.07632723,-0.045197748,-0.0024015028,0.015615322,-0.04849315,0.022470599,0.070093565,-0.06556932,-0.0023971237,0.0062197996,0.0066623734,-0.010629225,0.024532938,-0.026284676,0.017835014,0.025108095,-0.035790812,-0.07815588,-0.04926907,0.019844064,-0.0301423,-0.05594801,-0.021245763,-0.023442663,0.059337433,-0.02167009,0.030189797,-0.03614551,0.016677981,-0.013861023,0.036791235,0.03896199,0.017350575,0.0038500964,0.04607165,-0.017836593,-0.017132044,-0.021255635,-0.02982895,0.008120136,-0.019145388,-0.027513992,-0.02519698,0.05543307,0.012157502,-0.0029281187,-0.059844244,0.01703883,-0.051747575,-0.08780032,0.052006803,-0.014302573,0.0027487334,0.023339188,-0.038766276,-0.018438973,-0.024582474,-0.015543083,-0.004335593,-0.0508733,-0.013108178,-0.024484536,0.058209356,0.0005466037,-0.005150821,-0.06983457,0.00069732533,0.012978795,-0.0043693176,-0.0017664854,0.004875335,0.02933689,-0.011634983,-0.03595867,0.034878373,-0.017448124,0.03274239,0.020498626,0.012958437,-0.0038025316,-0.032997686,-0.068899885,-0.054937094,-0.05218513,0.038180113,-0.064780995,-0.052025348,0.01649795,-0.07050707,-0.049256463,0.005233884,4.1661235e-05,0.025080025,0.014013935,-0.00942296,0.06581967,-0.008933442,0.01435066,0.030394634,0.03269644,0.0063696085,0.04008531,-0.039603695,-0.036834788,-0.03160546,-0.041681897,-0.035736162,-0.00042556567,0.025291704,-0.0013888051,0.010338545,0.0492285,-0.003786367,-0.008451085,0.050526552,-0.024080178,0.0010874753,0.06266345,-0.039443683,-0.0010607911,-0.049818978,0.045340195,0.013075507,-0.035009053,-0.02209523,0.04321589,0.07824656,0.026534032,-0.025035048,0.043631684,-0.007897083,0.04236049,0.02453804,0.027913745,0.06794775,0.022292623,-0.010300698,-0.06613161,0.009164001,0.0071131936,0.03034304,-0.009998555,0.071968816,0.02299798,0.019833375,0.04542438,0.049796768,0.0056992774,-0.080598235,-0.056698605,0.020396994,-0.0416067,0.006258124,0.025665913,-0.0246787,-0.048926737,0.013808166,-0.035121087,0.038135797,0.018417675,0.0069702826,0.019964509,-0.03674755,-0.07229263,0.028305536,-0.022687845,-0.063594334,0.025920961,-0.025775746,0.0006064535,0.0252375,-0.06365657,-0.04740569,-0.06442873,-0.037807535,0.01137177,-0.03729947,0.027307786,0.024449332,-0.004145448,-0.06684987,-0.054495893,0.068956,-0.018105887,0.01001364,0.010167116,-0.0073656314,-0.03369998,0.031306915,0.008349506,0.019673696,-0.036139835,-0.022536986,0.050897937,0.004813583,0.026017766,0.01420754,0.030528072,-0.037764702,0.0024525733,-0.0011963295,-0.029821169,-0.014549767,-0.028529884,0.005468642,0.009049406,-0.019017767,-0.015146572,0.02380195,-0.033342633,0.0020090903,-0.02350061,-0.023895374,0.044908654,0.006779552,0.028966837,-0.052816495,0.038801134,0.0032417728,-0.018714182,-0.07076543,0.022970727,0.013756384,0.05026225,-0.01500728,0.030152015,-0.010167899,0.015785394,-0.0029167815,0.019498853,0.002696918,-0.03281716,0.006111982,0.0008178341,0.01778461,0.050144713,0.031527787,-0.03278499,-0.02449242,0.0060621463,0.06866686,-0.038466,0.026527584,-0.0062408852,0.04801687,-0.056127433,-0.03923403,0.015988074,-0.06726792,-0.036241394,-0.0074668056,0.06290686,-0.008072807,0.00890315,-0.008520626,-0.043324165,-0.062423952,0.022997374,0.03412021,-0.006338584,0.03714354,0.0015843348,0.017867431,0.029077724,0.002553393,0.015215012,-0.047794037,-0.00086023286,0.04829576,-0.097573966,-0.06170697,-0.038164306,0.028692987,-0.021337755,0.02791373,0.06332966,0.026525622,-0.010483293,0.025489904,0.04244434,0.03060212,0.018259639,0.018976202,0.012902427,0.029749203,-0.027349101,-0.068517976,-0.021527575,0.07000782
